{"learner":{"attributes":{"scikit_learn":"{\"_estimator_type\": \"classifier\"}"},"feature_names":[],"feature_types":[],"gradient_booster":{"model":{"cats":{"enc":[],"feature_segments":[],"sorted_idx":[]},"gbtree_model_param":{"num_parallel_tree":"1","num_trees":"408"},"iteration_indptr":[0,3,6,9,12,15,18,21,24,27,30,33,36,39,42,45,48,51,54,57,60,63,66,69,72,75,78,81,84,87,90,93,96,99,102,105,108,111,114,117,120,123,126,129,132,135,138,141,144,147,150,153,156,159,162,165,168,171,174,177,180,183,186,189,192,195,198,201,204,207,210,213,216,219,222,225,228,231,234,237,240,243,246,249,252,255,258,261,264,267,270,273,276,279,282,285,288,291,294,297,300,303,306,309,312,315,318,321,324,327,330,333,336,339,342,345,348,351,354,357,360,363,366,369,372,375,378,381,384,387,390,393,396,399,402,405,408],"tree_info":[0,1,2,0,1,2,0,1,2,0,1,2,0,1,2,0,1,2,0,1,2,0,1,2,0,1,2,0,1,2,0,1,2,0,1,2,0,1,2,0,1,2,0,1,2,0,1,2,0,1,2,0,1,2,0,1,2,0,1,2,0,1,2,0,1,2,0,1,2,0,1,2,0,1,2,0,1,2,0,1,2,0,1,2,0,1,2,0,1,2,0,1,2,0,1,2,0,1,2,0,1,2,0,1,2,0,1,2,0,1,2,0,1,2,0,1,2,0,1,2,0,1,2,0,1,2,0,1,2,0,1,2,0,1,2,0,1,2,0,1,2,0,1,2,0,1,2,0,1,2,0,1,2,0,1,2,0,1,2,0,1,2,0,1,2,0,1,2,0,1,2,0,1,2,0,1,2,0,1,2,0,1,2,0,1,2,0,1,2,0,1,2,0,1,2,0,1,2,0,1,2,0,1,2,0,1,2,0,1,2,0,1,2,0,1,2,0,1,2,0,1,2,0,1,2,0,1,2,0,1,2,0,1,2,0,1,2,0,1,2,0,1,2,0,1,2,0,1,2,0,1,2,0,1,2,0,1,2,0,1,2,0,1,2,0,1,2,0,1,2,0,1,2,0,1,2,0,1,2,0,1,2,0,1,2,0,1,2,0,1,2,0,1,2,0,1,2,0,1,2,0,1,2,0,1,2,0,1,2,0,1,2,0,1,2,0,1,2,0,1,2,0,1,2,0,1,2,0,1,2,0,1,2,0,1,2,0,1,2,0,1,2,0,1,2,0,1,2,0,1,2,0,1,2,0,1,2,0,1,2,0,1,2,0,1,2,0,1,2,0,1,2,0,1,2,0,1,2,0,1,2,0,1,2,0,1,2,0,1,2,0,1,2,0,1,2,0,1,2,0,1,2,0,1,2,0,1,2],"trees":[{"base_weights":[1.1958984E-2,5.439091E-1,-3.7086266E-1,9.889806E-1,-1.528791E-1,4.179321E-3,-2.1886101E-2,5.539058E-2,1.939114E-2,2.1791628E-2,-3.1105187E-2],"categories":[],"categories_nodes":[],"categories_segments":[],"categories_sizes":[],"default_left":[0,0,0,0,0,0,0,0,0,0,0],"id":0,"left_children":[1,3,5,7,9,-1,-1,-1,-1,-1,-1],"loss_changes":[2.9216274E1,1.9052748E1,5.3677855E0,5.13097E0,8.676965E0,0E0,0E0,0E0,0E0,0E0,0E0],"parents":[2147483647,0,0,1,1,2,2,3,3,4,4],"right_children":[2,4,6,8,10,-1,-1,-1,-1,-1,-1],"split_conditions":[-3.433666E-1,3.7741974E-2,-8.2910645E-1,2.8972763E-1,-1.6078769E-1,4.179321E-3,-2.1886101E-2,5.539058E-2,1.939114E-2,2.1791628E-2,-3.1105187E-2],"split_indices":[10,40,15,113,138,0,0,0,0,0,0],"split_type":[0,0,0,0,0,0,0,0,0,0,0],"sum_hessian":[1.4312294E2,6.03399E1,8.278304E1,3.7176888E1,2.3163013E1,1.7818222E1,6.496482E1,2.3721474E1,1.3455413E1,1.0388139E1,1.2774875E1],"tree_param":{"num_deleted":"0","num_feature":"153","num_nodes":"11","size_leaf_vector":"1"}},{"base_weights":[2.7302802E-2,-2.914075E-1,5.014873E-1,-2.1944053E-2,1.5424637E-2,9.6210074E-1,3.343694E-2,5.6331288E-2,1.5120549E-2,2.838068E-2,-1.2713318E-2],"categories":[],"categories_nodes":[],"categories_segments":[],"categories_sizes":[],"default_left":[0,0,0,0,0,0,0,0,0,0,0],"id":1,"left_children":[1,3,5,-1,-1,7,9,-1,-1,-1,-1],"loss_changes":[2.0704416E1,1.1361664E1,1.1528851E1,0E0,0E0,5.0266895E0,5.8181405E0,0E0,0E0,0E0,0E0],"parents":[2147483647,0,0,1,1,2,2,5,5,6,6],"right_children":[2,4,6,-1,-1,8,10,-1,-1,-1,-1],"split_conditions":[1.0879215E-1,-1.3857393E-1,-2.4912577E-2,-2.1944053E-2,1.5424637E-2,3.5498756E-1,-4.1229147E-1,5.6331288E-2,1.5120549E-2,2.838068E-2,-1.2713318E-2],"split_indices":[34,72,0,0,0,97,42,0,0,0,0],"split_type":[0,0,0,0,0,0,0,0,0,0,0],"sum_hessian":[1.3643407E2,8.108043E1,5.535364E1,6.13245E1,1.975593E1,2.7460459E1,2.7893183E1,1.7264164E1,1.0196295E1,1.0040982E1,1.7852201E1],"tree_param":{"num_deleted":"0","num_feature":"153","num_nodes":"11","size_leaf_vector":"1"}},{"base_weights":[-6.834929E-5,-2.7921706E-1,8.0684805E-1,1.0694123E-2,-3.93003E-1,1.0817414E-2,5.1294878E-2,-2.2250583E-2,1.4931546E-2],"categories":[],"categories_nodes":[],"categories_segments":[],"categories_sizes":[],"default_left":[0,0,0,0,0,0,0,0,0],"id":2,"left_children":[1,3,5,-1,7,-1,-1,-1,-1],"loss_changes":[3.0896301E1,6.225075E0,6.8027554E0,0E0,7.666745E0,0E0,0E0,0E0,0E0],"parents":[2147483647,0,0,1,1,2,2,4,4],"right_children":[2,4,6,-1,8,-1,-1,-1,-1],"split_conditions":[2.2584529E-1,-6.486157E-1,4.641168E-1,1.0694123E-2,1.7007338E-1,1.0817414E-2,5.1294878E-2,-2.2250583E-2,1.4931546E-2],"split_indices":[43,42,50,0,138,0,0,0,0],"split_type":[0,0,0,0,0,0,0,0,0],"sum_hessian":[1.3811708E2,1.0299171E2,3.5125374E1,1.7677969E1,8.531374E1,1.462189E1,2.0503483E1,7.379052E1,1.1523221E1],"tree_param":{"num_deleted":"0","num_feature":"153","num_nodes":"9","size_leaf_vector":"1"}},{"base_weights":[7.450562E-3,5.7418644E-2,-9.2260376E-2,4.9780396E-1,-3.0622002E-1,3.844597E-2,-1.72733E-2,1.0527146E-2,-4.5780638E-1,6.076079E-3,-2.452732E-2],"categories":[],"categories_nodes":[],"categories_segments":[],"categories_sizes":[],"default_left":[0,0,0,0,0,0,0,0,0,0,0],"id":3,"left_children":[1,-1,3,5,7,-1,-1,-1,9,-1,-1],"loss_changes":[1.9038187E1,0E0,1.6438215E1,1.219026E1,8.123282E0,0E0,0E0,0E0,5.118478E0,0E0,0E0],"parents":[2147483647,0,0,2,2,3,3,4,4,8,8],"right_children":[2,-1,4,6,8,-1,-1,-1,10,-1,-1],"split_conditions":[-1.5089982E0,5.7418644E-2,-7.541068E-1,1.2449776E0,-8.274121E-1,3.844597E-2,-1.72733E-2,1.0527146E-2,-6.5180266E-1,6.076079E-3,-2.452732E-2],"split_indices":[139,0,39,4,36,0,0,0,129,0,0],"split_type":[0,0,0,0,0,0,0,0,0,0,0],"sum_hessian":[1.4102425E2,1.0203655E1,1.3082059E2,3.430693E1,9.651366E1,2.4226908E1,1.0080021E1,2.0294355E1,7.62193E1,1.11264305E1,6.509287E1],"tree_param":{"num_deleted":"0","num_feature":"153","num_nodes":"11","size_leaf_vector":"1"}},{"base_weights":[-4.9353372E-2,-3.9872327E-1,3.2021436E-1,-2.3869487E-2,1.7286634E-2,6.790699E-1,-0E0,-2.9163575E-3,4.5801084E-2,2.9151801E-2,-1.3295124E-2],"categories":[],"categories_nodes":[],"categories_segments":[],"categories_sizes":[],"default_left":[0,0,0,0,0,0,0,0,0,0,0],"id":4,"left_children":[1,3,5,-1,-1,7,9,-1,-1,-1,-1],"loss_changes":[1.8469103E1,9.054365E0,7.68457E0,0E0,0E0,9.431501E0,7.735802E0,0E0,0E0,0E0,0E0],"parents":[2147483647,0,0,1,1,2,2,5,5,6,6],"right_children":[2,4,6,-1,-1,8,10,-1,-1,-1,-1],"split_conditions":[-1.0492375E-1,-1.1120401E-1,-1.5756749E-1,-2.3869487E-2,1.7286634E-2,-6.527131E-1,-4.0420982E-1,-2.9163575E-3,4.5801084E-2,2.9151801E-2,-1.3295124E-2],"split_indices":[34,120,0,0,0,131,42,0,0,0,0],"split_type":[0,0,0,0,0,0,0,0,0,0,0],"sum_hessian":[1.4279535E2,7.39692E1,6.882614E1,6.2535576E1,1.1433626E1,3.1968376E1,3.6857765E1,1.0392822E1,2.1575554E1,1.1881499E1,2.4976265E1],"tree_param":{"num_deleted":"0","num_feature":"153","num_nodes":"11","size_leaf_vector":"1"}},{"base_weights":[3.955934E-2,-2.4621353E-1,7.446134E-1,2.9422233E-1,-4.1179878E-1,2.937975E-3,4.6096116E-2,-1.1912244E-2,4.2151835E-2,-2.4407154E-2,5.3444374E-3],"categories":[],"categories_nodes":[],"categories_segments":[],"categories_sizes":[],"default_left":[0,0,0,0,0,0,0,0,0,0,0],"id":5,"left_children":[1,3,5,7,9,-1,-1,-1,-1,-1,-1],"loss_changes":[2.7197363E1,8.542595E0,7.9879875E0,8.666363E0,6.125702E0,0E0,0E0,0E0,0E0,0E0,0E0],"parents":[2147483647,0,0,1,1,2,2,3,3,4,4],"right_children":[2,4,6,8,10,-1,-1,-1,-1,-1,-1],"split_conditions":[-1.6326429E-1,-6.311731E-1,-2.1520507E-1,-2.2212772E-1,-9.514956E-2,2.937975E-3,4.6096116E-2,-1.1912244E-2,4.2151835E-2,-2.4407154E-2,5.3444374E-3],"split_indices":[43,42,138,5,152,0,0,0,0,0,0],"split_type":[0,0,0,0,0,0,0,0,0,0,0],"sum_hessian":[1.3397807E2,9.492591E1,3.9052162E1,2.1687199E1,7.3238716E1,1.2936042E1,2.6116121E1,1.1471043E1,1.0216156E1,5.765485E1,1.5583865E1],"tree_param":{"num_deleted":"0","num_feature":"153","num_nodes":"11","size_leaf_vector":"1"}},{"base_weights":[1.930086E-2,4.4263163E-1,-3.6480218E-1,9.208723E-1,-5.7578646E-2,1.8144032E-2,-2.1994848E-2,5.4322965E-2,1.7740827E-2,-2.0903952E-2,2.7740171E-2],"categories":[],"categories_nodes":[],"categories_segments":[],"categories_sizes":[],"default_left":[0,0,0,0,0,0,0,0,0,0,0],"id":6,"left_children":[1,3,5,7,9,-1,-1,-1,-1,-1,-1],"loss_changes":[2.3509909E1,1.6903135E1,8.4646845E0,5.422495E0,9.846799E0,0E0,0E0,0E0,0E0,0E0,0E0],"parents":[2147483647,0,0,1,1,2,2,3,3,4,4],"right_children":[2,4,6,8,10,-1,-1,-1,-1,-1,-1],"split_conditions":[-1.6444847E-1,-5.690838E-2,-8.071957E-1,-2.205879E-2,9.864427E-1,1.8144032E-2,-2.1994848E-2,5.4322965E-2,1.7740827E-2,-2.0903952E-2,2.7740171E-2],"split_indices":[34,40,88,15,111,0,0,0,0,0,0],"split_type":[0,0,0,0,0,0,0,0,0,0,0],"sum_hessian":[1.4439012E2,6.919128E1,7.519885E1,3.578803E1,3.3403248E1,1.1166009E1,6.4032845E1,2.1182138E1,1.460589E1,2.112345E1,1.2279799E1],"tree_param":{"num_deleted":"0","num_feature":"153","num_nodes":"11","size_leaf_vector":"1"}},{"base_weights":[5.423848E-3,-3.0028418E-1,6.135382E-1,-1.8229866E-2,9.917565E-3,4.5558974E-2,-4.0765587E-4],"categories":[],"categories_nodes":[],"categories_segments":[],"categories_sizes":[],"default_left":[0,0,0,0,0,0,0],"id":7,"left_children":[1,3,5,-1,-1,-1,-1],"loss_changes":[2.5513458E1,5.85021E0,1.3019342E1,0E0,0E0,0E0,0E0],"parents":[2147483647,0,0,1,1,2,2],"right_children":[2,4,6,-1,-1,-1,-1],"split_conditions":[2.5830224E-1,6.33451E-2,-4.0912664E-1,-1.8229866E-2,9.917565E-3,4.5558974E-2,-4.0765587E-4],"split_indices":[119,34,43,0,0,0,0],"split_type":[0,0,0,0,0,0,0],"sum_hessian":[1.3655336E2,9.042611E1,4.612725E1,7.427003E1,1.6156086E1,2.7458988E1,1.8668262E1],"tree_param":{"num_deleted":"0","num_feature":"153","num_nodes":"7","size_leaf_vector":"1"}},{"base_weights":[-6.253489E-3,-2.3841694E-1,3.935658E-2,-4.8262185E-1,1.1569688E-1,-0E0,-2.9845698E-2,-2.528809E-2,4.8443455E-1,4.1344456E-2,2.1385658E-3],"categories":[],"categories_nodes":[],"categories_segments":[],"categories_sizes":[],"default_left":[0,0,0,0,0,0,0,0,0,0,0],"id":8,"left_children":[1,3,-1,5,7,-1,-1,-1,9,-1,-1],"loss_changes":[2.9270735E1,9.773203E0,0E0,6.599701E0,1.150123E1,0E0,0E0,0E0,5.6623144E0,0E0,0E0],"parents":[2147483647,0,0,1,1,3,3,4,4,8,8],"right_children":[2,4,-1,6,8,-1,-1,-1,10,-1,-1],"split_conditions":[5.471857E-1,4.8438445E-1,3.935658E-2,-6.3505155E-1,-3.7031233E-1,-0E0,-2.9845698E-2,-2.528809E-2,8.054157E-1,4.1344456E-2,2.1385658E-3],"split_indices":[50,44,0,42,51,0,0,0,44,0,0],"split_type":[0,0,0,0,0,0,0,0,0,0,0],"sum_hessian":[1.3908563E2,1.11290054E2,2.7795588E1,6.654651E1,4.474354E1,2.000349E1,4.6543022E1,1.506329E1,2.968025E1,1.3815842E1,1.5864409E1],"tree_param":{"num_deleted":"0","num_feature":"153","num_nodes":"11","size_leaf_vector":"1"}},{"base_weights":[6.1445456E-2,4.8812515E-1,-3.388427E-1,4.397276E-2,-4.474606E-2,1.8006962E-2,-4.6873626E-1,-1.8680636E-2,2.34134E-2,9.5249945E-3,-2.6430044E-2],"categories":[],"categories_nodes":[],"categories_segments":[],"categories_sizes":[],"default_left":[0,0,0,0,0,0,0,0,0,0,0],"id":9,"left_children":[1,3,5,-1,7,-1,9,-1,-1,-1,-1],"loss_changes":[2.4444345E1,1.994341E1,7.193328E0,0E0,7.699361E0,0E0,6.2855396E0,0E0,0E0,0E0,0E0],"parents":[2147483647,0,0,1,1,2,2,4,4,6,6],"right_children":[2,4,6,-1,8,-1,10,-1,-1,-1,-1],"split_conditions":[-1.5379643E-1,-1.5674116E-1,-7.861967E-1,4.397276E-2,7.6637137E-1,1.8006962E-2,-8.549247E-1,-1.8680636E-2,2.34134E-2,9.5249945E-3,-2.6430044E-2],"split_indices":[119,131,18,0,112,0,129,0,0,0,0],"split_type":[0,0,0,0,0,0,0,0,0,0,0],"sum_hessian":[1.427654E2,6.95964E1,7.3169E1,3.5370674E1,3.422572E1,1.0285635E1,6.2883366E1,2.1031199E1,1.3194522E1,1.0227416E1,5.2655952E1],"tree_param":{"num_deleted":"0","num_feature":"153","num_nodes":"11","size_leaf_vector":"1"}},{"base_weights":[-5.9551336E-2,-3.1502452E-1,4.6570817E-1,-2.2075301E-2,2.3614718E-3,3.8823064E-2,3.07152E-4],"categories":[],"categories_nodes":[],"categories_segments":[],"categories_sizes":[],"default_left":[0,0,0,0,0,0,0],"id":10,"left_children":[1,3,5,-1,-1,-1,-1],"loss_changes":[1.9540993E1,7.2919807E0,8.970162E0,0E0,0E0,0E0,0E0],"parents":[2147483647,0,0,1,1,2,2],"right_children":[2,4,6,-1,-1,-1,-1],"split_conditions":[3.190335E-1,9.646018E-2,-3.9823413E-1,-2.2075301E-2,2.3614718E-3,3.8823064E-2,3.07152E-4],"split_indices":[34,129,42,0,0,0,0],"split_type":[0,0,0,0,0,0,0],"sum_hessian":[1.4607854E2,9.879933E1,4.7279213E1,6.543394E1,3.3365395E1,2.3925941E1,2.3353271E1],"tree_param":{"num_deleted":"0","num_feature":"153","num_nodes":"7","size_leaf_vector":"1"}},{"base_weights":[1.680349E-2,-2.3676623E-1,7.775249E-1,-6.593106E-2,-2.6213543E-2,1.07040545E-2,5.0214026E-2,-1.812332E-2,3.249364E-1,2.8938878E-2,-1.7874012E-2],"categories":[],"categories_nodes":[],"categories_segments":[],"categories_sizes":[],"default_left":[0,0,0,0,0,0,0,0,0,0,0],"id":11,"left_children":[1,3,5,7,-1,-1,-1,-1,9,-1,-1],"loss_changes":[2.7536377E1,6.3871336E0,6.6786118E0,1.0102249E1,0E0,0E0,0E0,0E0,8.733994E0,0E0,0E0],"parents":[2147483647,0,0,1,1,2,2,3,3,8,8],"right_children":[2,4,6,8,-1,-1,-1,-1,10,-1,-1],"split_conditions":[2.2404134E-1,2.4096303E-1,8.076653E-2,-1.1352495E-1,-2.6213543E-2,1.07040545E-2,5.0214026E-2,-1.812332E-2,2.1149826E-1,2.8938878E-2,-1.7874012E-2],"split_indices":[137,112,40,8,0,0,0,0,90,0,0],"split_type":[0,0,0,0,0,0,0,0,0,0,0],"sum_hessian":[1.4161214E2,1.0580863E2,3.580351E1,7.304488E1,3.2763752E1,1.5431992E1,2.0371515E1,3.8954556E1,3.409033E1,2.3641508E1,1.0448819E1],"tree_param":{"num_deleted":"0","num_feature":"153","num_nodes":"11","size_leaf_vector":"1"}},{"base_weights":[-4.648421E-2,4.26713E-1,-3.160759E-1,4.617759E-2,-4.5235925E-3,9.333105E-3,-4.6738133E-1,1.1096996E-3,-2.7572794E-2],"categories":[],"categories_nodes":[],"categories_segments":[],"categories_sizes":[],"default_left":[0,0,0,0,0,0,0,0,0],"id":12,"left_children":[1,3,5,-1,-1,-1,7,-1,-1],"loss_changes":[1.607513E1,1.5781965E1,6.6209345E0,0E0,0E0,0E0,5.5614576E0,0E0,0E0],"parents":[2147483647,0,0,1,1,2,2,6,6],"right_children":[2,4,6,-1,-1,-1,8,-1,-1],"split_conditions":[-4.2040822E-1,-3.2661545E-1,-8.997217E-1,4.617759E-2,-4.5235925E-3,9.333105E-3,-2.254447E-1,1.1096996E-3,-2.7572794E-2],"split_indices":[129,56,36,0,0,0,19,0,0],"split_type":[0,0,0,0,0,0,0,0,0],"sum_hessian":[1.26362686E2,4.5315178E1,8.10475E1,2.0909088E1,2.4406092E1,1.7362492E1,6.3685013E1,1.5659525E1,4.8025486E1],"tree_param":{"num_deleted":"0","num_feature":"153","num_nodes":"9","size_leaf_vector":"1"}},{"base_weights":[2.2387313E-2,5.294466E-1,-2.8052872E-1,5.403018E-3,4.0779207E-2,-2.0890718E-2,1.0520868E-1,2.9043902E-2,-2.3618637E-2],"categories":[],"categories_nodes":[],"categories_segments":[],"categories_sizes":[],"default_left":[0,0,0,0,0,0,0,0,0],"id":13,"left_children":[1,3,5,-1,-1,-1,7,-1,-1],"loss_changes":[2.0527105E1,7.9438057E0,6.594545E0,0E0,0E0,0E0,1.0248966E1,0E0,0E0],"parents":[2147483647,0,0,1,1,2,2,6,6],"right_children":[2,4,6,-1,-1,-1,8,-1,-1],"split_conditions":[-4.3447366E-1,-2.1325989E-2,3.965187E-1,5.403018E-3,4.0779207E-2,-2.0890718E-2,2.4663177E-1,2.9043902E-2,-2.3618637E-2],"split_indices":[43,36,76,0,0,0,42,0,0],"split_type":[0,0,0,0,0,0,0,0,0],"sum_hessian":[1.329838E2,5.0235596E1,8.274821E1,2.5842234E1,2.4393362E1,5.5019405E1,2.7728798E1,1.5169937E1,1.2558861E1],"tree_param":{"num_deleted":"0","num_feature":"153","num_nodes":"9","size_leaf_vector":"1"}},{"base_weights":[2.5145147E-2,-2.6002842E-1,8.5005844E-1,-2.3347009E-2,-4.1369177E-2,1.6598327E-2,5.2834246E-2,4.5025954E-1,-1.8409275E-2,4.810704E-2,-3.7792054E-4],"categories":[],"categories_nodes":[],"categories_segments":[],"categories_sizes":[],"default_left":[0,0,0,0,0,0,0,0,0,0,0],"id":14,"left_children":[1,3,5,-1,7,-1,-1,9,-1,-1,-1],"loss_changes":[3.213207E1,5.8877153E0,5.4233055E0,0E0,1.0758464E1,0E0,0E0,7.893151E0,0E0,0E0,0E0],"parents":[2147483647,0,0,1,1,2,2,4,4,7,7],"right_children":[2,4,6,-1,8,-1,-1,10,-1,-1,-1],"split_conditions":[5.1998124E-2,-2.6621234E-1,-1.1615974E-1,-2.3347009E-2,3.504578E-1,1.6598327E-2,5.2834246E-2,-4.6630886E-1,-1.8409275E-2,4.810704E-2,-3.7792054E-4],"split_indices":[137,33,19,0,33,0,0,133,0,0,0],"split_type":[0,0,0,0,0,0,0,0,0,0,0],"sum_hessian":[1.355704E2,1.0037702E2,3.519339E1,4.3285236E1,5.709178E1,1.6041515E1,1.9151875E1,2.4560204E1,3.2531578E1,1.0433405E1,1.4126799E1],"tree_param":{"num_deleted":"0","num_feature":"153","num_nodes":"11","size_leaf_vector":"1"}},{"base_weights":[3.6615466E-3,4.323645E-2,-8.628108E-2,6.1132586E-1,-2.3350553E-1,4.685915E-2,1.4249214E-4,-3.4634605E-1,1.4366281E-2,4.3918323E-2,-2.1698335E-2,-1.6101096E-2,3.0886943E-2],"categories":[],"categories_nodes":[],"categories_segments":[],"categories_sizes":[],"default_left":[0,0,0,0,0,0,0,0,0,0,0,0,0],"id":15,"left_children":[1,-1,3,5,7,-1,-1,9,-1,11,-1,-1,-1],"loss_changes":[1.337125E1,0E0,1.349588E1,6.04737E0,7.035593E0,0E0,0E0,5.7664766E0,0E0,7.231031E0,0E0,0E0,0E0],"parents":[2147483647,0,0,2,2,3,3,4,4,7,7,9,9],"right_children":[2,-1,4,6,8,-1,-1,10,-1,12,-1,-1,-1],"split_conditions":[-1.4443861E0,4.323645E-2,-1.0511676E0,5.945407E-2,5.6205463E-1,4.685915E-2,1.4249214E-4,-6.993389E-1,1.4366281E-2,-4.5420477E-1,-2.1698335E-2,-1.6101096E-2,3.0886943E-2],"split_indices":[44,0,7,78,22,0,0,40,0,50,0,0,0],"split_type":[0,0,0,0,0,0,0,0,0,0,0,0,0],"sum_hessian":[1.453277E2,1.242732E1,1.3290038E2,2.2678408E1,1.1022198E2,1.2407376E1,1.0271031E1,9.247837E1,1.77436E1,2.5496569E1,6.6981804E1,1.5352796E1,1.0143773E1],"tree_param":{"num_deleted":"0","num_feature":"153","num_nodes":"13","size_leaf_vector":"1"}},{"base_weights":[6.9262064E-3,-2.8125966E-1,3.487775E-1,-1.938145E-2,7.6599102E-3,7.5507873E-1,2.9824933E-4,4.9177624E-2,1.8895881E-3],"categories":[],"categories_nodes":[],"categories_segments":[],"categories_sizes":[],"default_left":[0,0,0,0,0,0,0,0,0],"id":16,"left_children":[1,3,5,-1,-1,7,-1,-1,-1],"loss_changes":[1.3265195E1,5.612647E0,8.317595E0,0E0,0E0,7.0529203E0,0E0,0E0,0E0],"parents":[2147483647,0,0,1,1,2,2,5,5],"right_children":[2,4,6,-1,-1,8,-1,-1,-1],"split_conditions":[-2.9786525E-3,1.9547151E-1,-2.707756E-1,-1.938145E-2,7.6599102E-3,1.0812361E-1,2.9824933E-4,4.9177624E-2,1.8895881E-3],"split_indices":[34,130,52,0,0,14,0,0,0],"split_type":[0,0,0,0,0,0,0,0,0],"sum_hessian":[1.343702E2,7.226231E1,6.210789E1,5.367489E1,1.8587414E1,2.783696E1,3.427093E1,1.7767122E1,1.0069839E1],"tree_param":{"num_deleted":"0","num_feature":"153","num_nodes":"9","size_leaf_vector":"1"}},{"base_weights":[-3.7388407E-2,-2.8351074E-1,6.1040133E-1,-3.4921218E-2,-2.4672424E-2,6.091781E-3,4.256497E-2,-1.8631857E-2,3.688227E-1,-4.6543926E-3,3.3817716E-2],"categories":[],"categories_nodes":[],"categories_segments":[],"categories_sizes":[],"default_left":[0,0,0,0,0,0,0,0,0,0,0],"id":17,"left_children":[1,3,5,7,-1,-1,-1,-1,9,-1,-1],"loss_changes":[2.1754261E1,6.862444E0,6.074585E0,8.680124E0,0E0,0E0,0E0,0E0,5.4383564E0,0E0,0E0],"parents":[2147483647,0,0,1,1,2,2,3,3,8,8],"right_children":[2,4,6,8,-1,-1,-1,-1,10,-1,-1],"split_conditions":[5.1998124E-2,-6.0640782E-2,9.1091216E-2,-1.0019805E-1,-2.4672424E-2,6.091781E-3,4.256497E-2,-1.8631857E-2,1.0036053E-2,-4.6543926E-3,3.3817716E-2],"split_indices":[137,64,40,52,0,0,0,0,23,0,0],"split_type":[0,0,0,0,0,0,0,0,0,0,0],"sum_hessian":[1.372791E2,9.993683E1,3.7342274E1,5.4236847E1,4.569998E1,1.6994259E1,2.0348015E1,2.7915674E1,2.6321173E1,1.174974E1,1.4571432E1],"tree_param":{"num_deleted":"0","num_feature":"153","num_nodes":"11","size_leaf_vector":"1"}},{"base_weights":[9.248625E-2,4.6660215E-1,-2.5143337E-1,7.7315575E-1,-6.813314E-3,1.0171607E-2,-1.9091884E-2,1.4496991E-2,4.720553E-2],"categories":[],"categories_nodes":[],"categories_segments":[],"categories_sizes":[],"default_left":[0,0,0,0,0,0,0,0,0],"id":18,"left_children":[1,3,5,7,-1,-1,-1,-1,-1],"loss_changes":[1.9112759E1,1.3904628E1,7.1257424E0,6.128845E0,0E0,0E0,0E0,0E0,0E0],"parents":[2147483647,0,0,1,1,2,2,3,3],"right_children":[2,4,6,8,-1,-1,-1,-1,-1],"split_conditions":[-1.6444847E-1,5.671741E-2,-3.273556E-1,-4.1437843E-1,-6.813314E-3,1.0171607E-2,-1.9091884E-2,1.4496991E-2,4.720553E-2],"split_indices":[34,43,2,43,0,0,0,0,0],"split_type":[0,0,0,0,0,0,0,0,0],"sum_hessian":[1.4786539E2,7.13899E1,7.647548E1,4.8306572E1,2.3083334E1,2.0831804E1,5.5643673E1,2.079879E1,2.750778E1],"tree_param":{"num_deleted":"0","num_feature":"153","num_nodes":"9","size_leaf_vector":"1"}},{"base_weights":[3.198484E-2,-2.0146117E-1,5.027479E-1,-1.624729E-2,2.8142413E-1,4.210621E-2,2.4603184E-3,3.023017E-2,-9.451793E-3],"categories":[],"categories_nodes":[],"categories_segments":[],"categories_sizes":[],"default_left":[0,0,0,0,0,0,0,0,0],"id":19,"left_children":[1,3,5,-1,7,-1,-1,-1,-1],"loss_changes":[1.4977489E1,7.5670557E0,9.082168E0,0E0,5.0086164E0,0E0,0E0,0E0,0E0],"parents":[2147483647,0,0,1,1,2,2,4,4],"right_children":[2,4,6,-1,8,-1,-1,-1,-1],"split_conditions":[2.5830224E-1,2.9496574E-1,-3.5269982E-1,-1.624729E-2,9.5004246E-2,4.210621E-2,2.4603184E-3,3.023017E-2,-9.451793E-3],"split_indices":[119,130,141,0,105,0,0,0,0],"split_type":[0,0,0,0,0,0,0,0,0],"sum_hessian":[1.3517046E2,8.978385E1,4.5386612E1,6.665534E1,2.312851E1,2.1667383E1,2.3719229E1,1.3057258E1,1.0071252E1],"tree_param":{"num_deleted":"0","num_feature":"153","num_nodes":"9","size_leaf_vector":"1"}},{"base_weights":[-8.553741E-3,-2.5478303E-1,7.148025E-1,-2.9006256E-2,-1.0118297E-1,-0E0,4.2786613E-2,2.9435374E-2,-2.2581826E-1,3.563036E-2,-2.2898894E-2,-1.2617054E-2,2.447812E-2],"categories":[],"categories_nodes":[],"categories_segments":[],"categories_sizes":[],"default_left":[0,0,0,0,0,0,0,0,0,0,0,0,0],"id":20,"left_children":[1,3,5,-1,7,-1,-1,-1,9,11,-1,-1,-1],"loss_changes":[2.4785118E1,6.3794384E0,6.5989437E0,0E0,7.343735E0,0E0,0E0,0E0,5.5187054E0,6.2267675E0,0E0,0E0,0E0],"parents":[2147483647,0,0,1,1,2,2,4,4,8,8,9,9],"right_children":[2,4,6,-1,8,-1,-1,-1,10,12,-1,-1,-1],"split_conditions":[3.142601E-2,-4.8638102E-1,-9.3452744E-2,-2.9006256E-2,-6.209151E-1,-0E0,4.2786613E-2,2.9435374E-2,-1.6285507E-1,-3.9725485E-1,-2.2898894E-2,-1.2617054E-2,2.447812E-2],"split_indices":[50,13,138,0,11,0,0,0,22,138,0,0,0],"split_type":[0,0,0,0,0,0,0,0,0,0,0,0,0],"sum_hessian":[1.4020522E2,1.0501917E2,3.518604E1,2.7658415E1,7.7360756E1,1.0001221E1,2.5184818E1,1.0199782E1,6.716097E1,3.5324787E1,3.1836185E1,2.1365475E1,1.3959312E1],"tree_param":{"num_deleted":"0","num_feature":"153","num_nodes":"13","size_leaf_vector":"1"}},{"base_weights":[-2.032375E-2,4.520928E-1,-2.6868924E-1,3.146275E-2,-8.546802E-3,-1.8030304E-2,2.3948139E-2],"categories":[],"categories_nodes":[],"categories_segments":[],"categories_sizes":[],"default_left":[0,0,0,0,0,0,0],"id":21,"left_children":[1,3,5,-1,-1,-1,-1],"loss_changes":[1.662178E1,8.849946E0,1.1322811E1,0E0,0E0,0E0,0E0],"parents":[2147483647,0,0,1,1,2,2],"right_children":[2,4,6,-1,-1,-1,-1],"split_conditions":[-4.6242824E-1,5.1998124E-2,1.1447347E0,3.146275E-2,-8.546802E-3,-1.8030304E-2,2.3948139E-2],"split_indices":[10,137,38,0,0,0,0],"split_type":[0,0,0,0,0,0,0],"sum_hessian":[1.4229997E2,4.8469135E1,9.383084E1,3.4515717E1,1.3953418E1,7.996147E1,1.3869371E1],"tree_param":{"num_deleted":"0","num_feature":"153","num_nodes":"7","size_leaf_vector":"1"}},{"base_weights":[-3.7362922E-2,-3.4463167E-1,4.41042E-1,-2.0142647E-2,1.14627015E-2,3.527977E-2,7.9843285E-4],"categories":[],"categories_nodes":[],"categories_segments":[],"categories_sizes":[],"default_left":[0,0,0,0,0,0,0],"id":22,"left_children":[1,3,5,-1,-1,-1,-1],"loss_changes":[2.012041E1,6.246475E0,8.045363E0,0E0,0E0,0E0,0E0],"parents":[2147483647,0,0,1,1,2,2],"right_children":[2,4,6,-1,-1,-1,-1],"split_conditions":[-3.0004092E-2,7.820871E-2,-4.358687E-1,-2.0142647E-2,1.14627015E-2,3.527977E-2,7.9843285E-4],"split_indices":[120,34,43,0,0,0,0],"split_type":[0,0,0,0,0,0,0],"sum_hessian":[1.3714107E2,8.402429E1,5.3116776E1,7.071527E1,1.3309022E1,2.7685797E1,2.5430977E1],"tree_param":{"num_deleted":"0","num_feature":"153","num_nodes":"7","size_leaf_vector":"1"}},{"base_weights":[-1.2221968E-2,-3.107238E-1,5.9913325E-1,-3.958939E-1,1.4213055E-2,3.9769695E-3,4.1084204E-2,3.932893E-3,-2.2639146E-2],"categories":[],"categories_nodes":[],"categories_segments":[],"categories_sizes":[],"default_left":[0,0,0,0,0,0,0,0,0],"id":23,"left_children":[1,3,5,7,-1,-1,-1,-1,-1],"loss_changes":[2.5175423E1,5.1192083E0,7.5579433E0,5.305728E0,0E0,0E0,0E0,0E0,0E0],"parents":[2147483647,0,0,1,1,2,2,3,3],"right_children":[2,4,6,8,-1,-1,-1,-1,-1],"split_conditions":[2.1197565E-2,4.318629E-1,3.4977604E-2,-6.820638E-1,1.4213055E-2,3.9769695E-3,4.1084204E-2,3.932893E-3,-2.2639146E-2],"split_indices":[43,152,97,4,0,0,0,0,0],"split_type":[0,0,0,0,0,0,0,0,0],"sum_hessian":[1.3859706E2,9.357379E1,4.5023277E1,8.3128365E1,1.0445427E1,1.8837572E1,2.6185705E1,1.651829E1,6.661008E1],"tree_param":{"num_deleted":"0","num_feature":"153","num_nodes":"9","size_leaf_vector":"1"}},{"base_weights":[-0E0,-1.7358743E-1,7.1457493E-1,4.049609E-2,-2.9349786E-1,4.724423E-2,3.493446E-3,4.6223953E-2,-2.2530112E-2,3.2672238E-2,-2.1910778E-1,1.0117731E-2,-2.763352E-2],"categories":[],"categories_nodes":[],"categories_segments":[],"categories_sizes":[],"default_left":[0,0,0,0,0,0,0,0,0,0,0,0,0],"id":24,"left_children":[1,3,5,-1,7,-1,-1,9,-1,-1,11,-1,-1],"loss_changes":[1.700408E1,1.4167526E1,5.937662E0,0E0,7.7609644E0,0E0,0E0,7.4727116E0,0E0,0E0,5.4119954E0,0E0,0E0],"parents":[2147483647,0,0,1,1,2,2,4,4,7,7,10,10],"right_children":[2,4,6,-1,8,-1,-1,10,-1,-1,12,-1,-1],"split_conditions":[5.764403E-1,-1.4026711E0,4.4113386E-2,4.049609E-2,-1.763449E-1,4.724423E-2,3.493446E-3,-1.1547163E-1,-2.2530112E-2,3.2672238E-2,-5.5434227E-1,1.0117731E-2,-2.763352E-2],"split_indices":[22,44,40,0,119,0,0,113,0,0,123,0,0],"split_type":[0,0,0,0,0,0,0,0,0,0,0,0,0],"sum_hessian":[1.3543814E2,1.0854258E2,2.6895563E1,1.0263635E1,9.8278946E1,1.6476118E1,1.0419445E1,3.8614025E1,5.966492E1,1.0942747E1,2.7671278E1,1.2832352E1,1.4838926E1],"tree_param":{"num_deleted":"0","num_feature":"153","num_nodes":"13","size_leaf_vector":"1"}},{"base_weights":[2.525128E-2,-1.2282819E-2,4.1885433E-1,3.625088E-2,-0E0,2.0612275E-2,-1.7076548E-2],"categories":[],"categories_nodes":[],"categories_segments":[],"categories_sizes":[],"default_left":[0,0,0,0,0,0,0],"id":25,"left_children":[1,-1,3,-1,5,-1,-1],"loss_changes":[1.7107635E1,0E0,1.0887002E1,0E0,5.8410406E0,0E0,0E0],"parents":[2147483647,0,0,2,2,4,4],"right_children":[2,-1,4,-1,6,-1,-1],"split_conditions":[-2.0781439E-2,-1.2282819E-2,-4.0420982E-1,3.625088E-2,-2.7128303E-1,2.0612275E-2,-1.7076548E-2],"split_indices":[119,0,42,0,28,0,0],"split_type":[0,0,0,0,0,0,0],"sum_hessian":[1.4028217E2,7.80263E1,6.225587E1,3.1133385E1,3.1122486E1,1.4122827E1,1.699966E1],"tree_param":{"num_deleted":"0","num_feature":"153","num_nodes":"7","size_leaf_vector":"1"}},{"base_weights":[-0E0,-1.725569E-1,6.8031704E-1,-2.4301903E-2,-0E0,4.7902416E-2,6.5340633E-3,-1.3811977E-1,3.59967E-2,1.4372246E-1,-2.440859E-2,-6.9881324E-3,3.1662416E-2],"categories":[],"categories_nodes":[],"categories_segments":[],"categories_sizes":[],"default_left":[0,0,0,0,0,0,0,0,0,0,0,0,0],"id":26,"left_children":[1,3,5,-1,7,-1,-1,9,-1,11,-1,-1,-1],"loss_changes":[1.6229029E1,7.2837505E0,5.791402E0,0E0,8.671701E0,0E0,0E0,8.08899E0,0E0,7.2455807E0,0E0,0E0,0E0],"parents":[2147483647,0,0,1,1,2,2,4,4,7,7,9,9],"right_children":[2,4,6,-1,8,-1,-1,10,-1,12,-1,-1,-1],"split_conditions":[7.738056E-1,-4.1773444E-1,3.31541E-1,-2.4301903E-2,2.2584529E-1,4.7902416E-2,6.5340633E-3,9.41808E-2,3.59967E-2,4.8005885E-1,-2.440859E-2,-6.9881324E-3,3.1662416E-2],"split_indices":[136,51,85,0,43,0,0,111,0,139,0,0,0],"split_type":[0,0,0,0,0,0,0,0,0,0,0,0,0],"sum_hessian":[1.3830797E2,1.1034222E2,2.796576E1,3.3573036E1,7.676918E1,1.5076686E1,1.2889072E1,6.603857E1,1.0730612E1,3.9147614E1,2.6890953E1,2.5308882E1,1.3838733E1],"tree_param":{"num_deleted":"0","num_feature":"153","num_nodes":"13","size_leaf_vector":"1"}},{"base_weights":[5.769573E-3,5.0760937E-1,-2.6335213E-1,3.6258794E-2,-1.4970237E-2,-3.976527E-1,2.2583608E-2,1.3751534E-2,-2.1951469E-2],"categories":[],"categories_nodes":[],"categories_segments":[],"categories_sizes":[],"default_left":[0,0,0,0,0,0,0,0,0],"id":27,"left_children":[1,3,5,-1,-1,7,-1,-1,-1],"loss_changes":[1.9639761E1,1.454893E1,9.819973E0,0E0,0E0,6.3543453E0,0E0,0E0,0E0],"parents":[2147483647,0,0,1,1,2,2,5,5],"right_children":[2,4,6,-1,-1,8,-1,-1,-1],"split_conditions":[-4.637146E-1,4.4113386E-2,1.1683041E0,3.6258794E-2,-1.4970237E-2,-8.984868E-1,2.2583608E-2,1.3751534E-2,-2.1951469E-2],"split_indices":[71,40,30,0,0,131,0,0,0],"split_type":[0,0,0,0,0,0,0,0,0],"sum_hessian":[1.4468362E2,5.1032597E1,9.3651024E1,3.7158222E1,1.3874373E1,8.0408585E1,1.324244E1,1.015505E1,7.025353E1],"tree_param":{"num_deleted":"0","num_feature":"153","num_nodes":"9","size_leaf_vector":"1"}},{"base_weights":[5.816169E-2,-2.6061812E-1,4.1558173E-1,1.5839928E-1,-1.9723471E-2,3.1284567E-2,8.91376E-2,3.214326E-2,-1.761878E-2,3.444731E-2,-9.766308E-3],"categories":[],"categories_nodes":[],"categories_segments":[],"categories_sizes":[],"default_left":[0,0,0,0,0,0,0,0,0,0,0],"id":28,"left_children":[1,3,5,7,-1,-1,9,-1,-1,-1,-1],"loss_changes":[1.6036234E1,6.118885E0,6.347561E0,7.6121387E0,0E0,0E0,7.5524964E0,0E0,0E0,0E0,0E0],"parents":[2147483647,0,0,1,1,2,2,3,3,6,6],"right_children":[2,4,6,8,-1,-1,10,-1,-1,-1,-1],"split_conditions":[-1.0492375E-1,-7.8207463E-1,-3.992894E-1,-2.3706473E-1,-1.9723471E-2,3.1284567E-2,-3.6957222E-1,3.214326E-2,-1.761878E-2,3.444731E-2,-9.766308E-3],"split_indices":[34,38,135,152,0,0,0,0,0,0,0],"split_type":[0,0,0,0,0,0,0,0,0,0,0],"sum_hessian":[1.4019151E2,7.3499825E1,6.669169E1,2.2659698E1,5.0840126E1,3.3742393E1,3.2949295E1,1.1500957E1,1.1158742E1,1.0553652E1,2.2395643E1],"tree_param":{"num_deleted":"0","num_feature":"153","num_nodes":"11","size_leaf_vector":"1"}},{"base_weights":[2.2997815E-2,-1.7742658E-1,7.729426E-1,-2.740183E-2,-2.823871E-3,4.939963E-2,1.0287987E-2,-1.7611828E-2,2.2334693E-1,5.596666E-1,-8.937521E-3,4.8779447E-2,8.64151E-3],"categories":[],"categories_nodes":[],"categories_segments":[],"categories_sizes":[],"default_left":[0,0,0,0,0,0,0,0,0,0,0,0,0],"id":29,"left_children":[1,3,5,-1,7,-1,-1,-1,9,11,-1,-1,-1],"loss_changes":[2.1352377E1,8.516572E0,5.3532333E0,0E0,7.4209695E0,0E0,0E0,0E0,7.5017586E0,5.396861E0,0E0,0E0,0E0],"parents":[2147483647,0,0,1,1,2,2,4,4,8,8,9,9],"right_children":[2,4,6,-1,8,-1,-1,-1,10,12,-1,-1,-1],"split_conditions":[4.641168E-1,-6.507936E-1,3.144857E-1,-2.740183E-2,-1.8051025E-1,4.939963E-2,1.0287987E-2,-1.7611828E-2,2.1291667E-1,-2.0121138E-1,-8.937521E-3,4.8779447E-2,8.64151E-3],"split_indices":[50,130,7,0,61,0,0,0,57,76,0,0,0],"split_type":[0,0,0,0,0,0,0,0,0,0,0,0,0],"sum_hessian":[1.4044664E2,1.1039984E2,3.0046803E1,2.9959448E1,8.044039E1,1.736491E1,1.2681893E1,2.9525167E1,5.0915222E1,2.909178E1,2.1823442E1,1.0867154E1,1.8224625E1],"tree_param":{"num_deleted":"0","num_feature":"153","num_nodes":"13","size_leaf_vector":"1"}},{"base_weights":[7.7534197E-3,4.5968527E-1,-2.7030116E-1,3.712166E-2,-8.785799E-3,1.172496E-2,-3.9030102E-1,5.308681E-3,-2.4396373E-2],"categories":[],"categories_nodes":[],"categories_segments":[],"categories_sizes":[],"default_left":[0,0,0,0,0,0,0,0,0],"id":30,"left_children":[1,3,5,-1,-1,-1,7,-1,-1],"loss_changes":[1.750605E1,1.4321843E1,5.58706E0,0E0,0E0,0E0,6.4276094E0,0E0,0E0],"parents":[2147483647,0,0,1,1,2,2,6,6],"right_children":[2,4,6,-1,-1,-1,8,-1,-1],"split_conditions":[-4.6242824E-1,-5.690838E-2,-5.4702854E-1,3.712166E-2,-8.785799E-3,1.172496E-2,-7.1876484E-1,5.308681E-3,-2.4396373E-2],"split_indices":[10,40,2,0,0,0,31,0,0],"split_type":[0,0,0,0,0,0,0,0,0],"sum_hessian":[1.3869772E2,5.3387585E1,8.531014E1,3.3755306E1,1.9632278E1,1.4871985E1,7.0438156E1,1.7171125E1,5.326703E1],"tree_param":{"num_deleted":"0","num_feature":"153","num_nodes":"9","size_leaf_vector":"1"}},{"base_weights":[-1.6190505E-2,3.4811068E-1,-2.7471596E-1,-1.2364114E-2,5.6716764E-1,-1.6340049E-2,1.6702441E-2,1.0978108E-2,4.2278066E-2],"categories":[],"categories_nodes":[],"categories_segments":[],"categories_sizes":[],"default_left":[0,0,0,0,0,0,0,0,0],"id":31,"left_children":[1,3,5,-1,7,-1,-1,-1,-1],"loss_changes":[1.3360202E1,8.214426E0,5.6718616E0,0E0,5.124609E0,0E0,0E0,0E0,0E0],"parents":[2147483647,0,0,1,1,2,2,4,4],"right_children":[2,4,6,-1,8,-1,-1,-1,-1],"split_conditions":[-4.0884373E-1,-6.555779E-1,1.0284623E0,-1.2364114E-2,1.2516864E-1,-1.6340049E-2,1.6702441E-2,1.0978108E-2,4.2278066E-2],"split_indices":[137,2,126,0,81,0,0,0,0],"split_type":[0,0,0,0,0,0,0,0,0],"sum_hessian":[1.4217313E2,5.8360806E1,8.3812325E1,1.4516999E1,4.3843807E1,7.3079834E1,1.0732486E1,2.5374052E1,1.8469755E1],"tree_param":{"num_deleted":"0","num_feature":"153","num_nodes":"9","size_leaf_vector":"1"}},{"base_weights":[5.5301074E-2,-1.5321992E-1,3.411777E-2,3.7366685E-2,-2.3458758E-2,-1.31183835E-2,3.1818593E-1,3.7419308E-2,-5.805385E-4],"categories":[],"categories_nodes":[],"categories_segments":[],"categories_sizes":[],"default_left":[0,0,0,0,0,0,0,0,0],"id":32,"left_children":[1,3,-1,5,-1,-1,7,-1,-1],"loss_changes":[2.1774858E1,8.290872E0,0E0,6.9404864E0,0E0,0E0,7.6594496E0,0E0,0E0],"parents":[2147483647,0,0,1,1,3,3,6,6],"right_children":[2,4,-1,6,-1,-1,8,-1,-1],"split_conditions":[4.641168E-1,6.577828E-3,3.411777E-2,-3.8276964E-1,-2.3458758E-2,-1.31183835E-2,-1.6785242E-1,3.7419308E-2,-5.805385E-4],"split_indices":[50,112,0,16,0,0,6,0,0],"split_type":[0,0,0,0,0,0,0,0,0],"sum_hessian":[1.4088766E2,1.0923322E2,3.1654446E1,7.257403E1,3.6659195E1,3.2160145E1,4.0413887E1,1.5737833E1,2.4676054E1],"tree_param":{"num_deleted":"0","num_feature":"153","num_nodes":"9","size_leaf_vector":"1"}},{"base_weights":[5.149846E-2,4.519462E-1,-2.6478657E-1,3.625678E-2,-1.6855314E-1,2.0453209E-2,-3.8212344E-1,1.151378E-2,-2.87127E-2,1.2543602E-4,-2.4527613E-2],"categories":[],"categories_nodes":[],"categories_segments":[],"categories_sizes":[],"default_left":[0,0,0,0,0,0,0,0,0,0,0],"id":33,"left_children":[1,3,5,-1,7,-1,9,-1,-1,-1,-1],"loss_changes":[1.822329E1,1.55179825E1,6.8370996E0,0E0,5.3214602E0,0E0,5.1250067E0,0E0,0E0,0E0,0E0],"parents":[2147483647,0,0,1,1,2,2,4,4,6,6],"right_children":[2,4,6,-1,8,-1,10,-1,-1,-1,-1],"split_conditions":[-1.8443446E-1,4.4113386E-2,-8.931266E-1,3.625678E-2,1.0764831E-2,2.0453209E-2,-4.0557337E-1,1.151378E-2,-2.87127E-2,1.2543602E-4,-2.4527613E-2],"split_indices":[120,40,15,0,137,0,2,0,0,0,0],"split_type":[0,0,0,0,0,0,0,0,0,0,0],"sum_hessian":[1.4327936E2,6.3794765E1,7.9484604E1,3.9766594E1,2.402817E1,1.0440403E1,6.90442E1,1.235214E1,1.1676029E1,2.162586E1,4.741834E1],"tree_param":{"num_deleted":"0","num_feature":"153","num_nodes":"11","size_leaf_vector":"1"}},{"base_weights":[1.9105928E-2,-2.3270947E-1,4.84621E-1,-1.6650153E-2,1.7718591E-1,4.0192235E-2,1.6864105E-4,2.8933454E-2,-1.5635733E-2],"categories":[],"categories_nodes":[],"categories_segments":[],"categories_sizes":[],"default_left":[0,0,0,0,0,0,0,0,0],"id":34,"left_children":[1,3,5,-1,7,-1,-1,-1,-1],"loss_changes":[1.6252771E1,5.608912E0,1.004955E1,0E0,6.273204E0,0E0,0E0,0E0,0E0],"parents":[2147483647,0,0,1,1,2,2,4,4],"right_children":[2,4,6,-1,8,-1,-1,-1,-1],"split_conditions":[2.6695874E-1,1.10966265E-1,-1.0019805E-1,-1.6650153E-2,-1.6317123E-1,4.0192235E-2,1.6864105E-4,2.8933454E-2,-1.5635733E-2],"split_indices":[120,10,52,0,0,0,0,0,0],"split_type":[0,0,0,0,0,0,0,0,0],"sum_hessian":[1.3777307E2,8.884158E1,4.8931488E1,6.556648E1,2.3275099E1,2.5015503E1,2.3915987E1,1.2568308E1,1.0706791E1],"tree_param":{"num_deleted":"0","num_feature":"153","num_nodes":"9","size_leaf_vector":"1"}},{"base_weights":[4.372036E-2,-1.5261519E-1,3.3187184E-2,7.847344E-2,-1.924492E-2,-1.5664076E-2,3.7237918E-1,2.9260198E-2,-1.710002E-2],"categories":[],"categories_nodes":[],"categories_segments":[],"categories_sizes":[],"default_left":[0,0,0,0,0,0,0,0,0],"id":35,"left_children":[1,3,-1,5,-1,-1,7,-1,-1],"loss_changes":[2.0255705E1,7.5947413E0,0E0,7.8761883E0,0E0,0E0,8.730079E0,0E0,0E0],"parents":[2147483647,0,0,1,1,3,3,6,6],"right_children":[2,4,-1,6,-1,-1,8,-1,-1],"split_conditions":[4.318629E-1,-6.0640782E-2,3.3187184E-2,-4.4829205E-1,-1.924492E-2,-1.5664076E-2,6.40647E-2,2.9260198E-2,-1.710002E-2],"split_indices":[152,64,0,79,0,0,6,0,0],"split_type":[0,0,0,0,0,0,0,0,0],"sum_hessian":[1.410336E2,1.10455376E2,3.0578222E1,6.085394E1,4.9601437E1,2.3811808E1,3.7042133E1,2.6929932E1,1.0112201E1],"tree_param":{"num_deleted":"0","num_feature":"153","num_nodes":"9","size_leaf_vector":"1"}},{"base_weights":[1.0081987E-1,5.5948424E-1,-1.705795E-1,3.6619317E-2,-2.4906704E-3,2.1611327E-2,-3.1901014E-1,1.6162725E-2,-2.009382E-2],"categories":[],"categories_nodes":[],"categories_segments":[],"categories_sizes":[],"default_left":[0,0,0,0,0,0,0,0,0],"id":36,"left_children":[1,3,5,-1,-1,-1,7,-1,-1],"loss_changes":[1.6673727E1,9.121484E0,8.15519E0,0E0,0E0,0E0,6.8848567E0,0E0,0E0],"parents":[2147483647,0,0,1,1,2,2,6,6],"right_children":[2,4,6,-1,-1,-1,8,-1,-1],"split_conditions":[-4.6242824E-1,-5.690838E-2,-8.071957E-1,3.6619317E-2,-2.4906704E-3,2.1611327E-2,-9.7231895E-1,1.6162725E-2,-2.009382E-2],"split_indices":[10,40,88,0,0,0,113,0,0],"split_type":[0,0,0,0,0,0,0,0,0],"sum_hessian":[1.326749E2,4.9878582E1,8.279632E1,3.453175E1,1.5346835E1,1.4527096E1,6.826922E1,1.1332799E1,5.6936424E1],"tree_param":{"num_deleted":"0","num_feature":"153","num_nodes":"9","size_leaf_vector":"1"}},{"base_weights":[-1.2175903E-2,-1.0381339E-2,3.0525935E-1,-1.7690629E-2,4.8773798E-1,-1.1998284E-2,3.1126283E-2],"categories":[],"categories_nodes":[],"categories_segments":[],"categories_sizes":[],"default_left":[0,0,0,0,0,0,0],"id":37,"left_children":[1,-1,3,-1,5,-1,-1],"loss_changes":[9.918508E0,0E0,7.422528E0,0E0,8.2399025E0,0E0,0E0],"parents":[2147483647,0,0,2,2,4,4],"right_children":[2,-1,4,-1,6,-1,-1],"split_conditions":[7.820871E-2,-1.0381339E-2,-6.135296E-1,-1.7690629E-2,-6.703007E-1,-1.1998284E-2,3.1126283E-2],"split_indices":[34,0,4,0,89,0,0],"split_type":[0,0,0,0,0,0,0],"sum_hessian":[1.3770787E2,8.096255E1,5.6745327E1,1.110055E1,4.5644775E1,1.01771145E1,3.5467663E1],"tree_param":{"num_deleted":"0","num_feature":"153","num_nodes":"7","size_leaf_vector":"1"}},{"base_weights":[2.838655E-2,-1.6735797E-1,3.1462204E-2,-2.1862974E-2,2.52752E-2,3.2921914E-2,-1.338823E-1,-1.3008876E-2,2.2625113E-2],"categories":[],"categories_nodes":[],"categories_segments":[],"categories_sizes":[],"default_left":[0,0,0,0,0,0,0,0,0],"id":38,"left_children":[1,3,-1,-1,5,-1,7,-1,-1],"loss_changes":[1.8908638E1,7.1059585E0,0E0,0E0,8.080927E0,0E0,5.8689213E0,0E0,0E0],"parents":[2147483647,0,0,1,1,4,4,6,6],"right_children":[2,4,-1,-1,6,-1,8,-1,-1],"split_conditions":[4.962721E-1,-1.2547272E-1,3.1462204E-2,-2.1862974E-2,7.820871E-2,3.2921914E-2,1.6524855E0,-1.3008876E-2,2.2625113E-2],"split_indices":[152,34,0,0,34,0,10,0,0],"split_type":[0,0,0,0,0,0,0,0,0],"sum_hessian":[1.3672647E2,1.06326645E2,3.0399836E1,3.9409077E1,6.6917564E1,1.236829E1,5.4549274E1,4.4006294E1,1.0542981E1],"tree_param":{"num_deleted":"0","num_feature":"153","num_nodes":"9","size_leaf_vector":"1"}},{"base_weights":[4.6909314E-2,-1.8304457E-1,5.414791E-1,3.1072685E-2,-3.1788358E-1,3.528557E-2,-9.819774E-3,8.917778E-3,-1.9346636E-2],"categories":[],"categories_nodes":[],"categories_segments":[],"categories_sizes":[],"default_left":[0,0,0,0,0,0,0,0,0],"id":39,"left_children":[1,3,5,-1,7,-1,-1,-1,-1],"loss_changes":[1.5459715E1,1.0929523E1,9.32611E0,0E0,5.48446E0,0E0,0E0,0E0,0E0],"parents":[2147483647,0,0,1,1,2,2,4,4],"right_children":[2,4,6,-1,8,-1,-1,-1,-1],"split_conditions":[1.6521536E-1,-1.3033712E0,2.1197565E-2,3.1072685E-2,-7.403731E-1,3.528557E-2,-9.819774E-3,8.917778E-3,-1.9346636E-2],"split_indices":[95,44,43,0,132,0,0,0,0],"split_type":[0,0,0,0,0,0,0,0,0],"sum_hessian":[1.3465355E2,9.135509E1,4.3298462E1,1.1505431E1,7.9849655E1,3.2330254E1,1.0968208E1,1.5135975E1,6.471368E1],"tree_param":{"num_deleted":"0","num_feature":"153","num_nodes":"9","size_leaf_vector":"1"}},{"base_weights":[-5.396912E-2,2.3838025E-1,-1.42825935E-2,4.817688E-1,-1.4227088E-2,1.4953746E-1,3.997765E-2,2.8323859E-2,-9.48133E-3],"categories":[],"categories_nodes":[],"categories_segments":[],"categories_sizes":[],"default_left":[0,0,0,0,0,0,0,0,0],"id":40,"left_children":[1,3,-1,5,-1,7,-1,-1,-1],"loss_changes":[1.1078844E1,9.13536E0,0E0,6.381813E0,0E0,5.205579E0,0E0,0E0,0E0],"parents":[2147483647,0,0,1,1,3,3,5,5],"right_children":[2,4,-1,6,-1,8,-1,-1,-1],"split_conditions":[-4.1146103E-1,1.0625282E-1,-1.42825935E-2,2.2313794E-1,-1.4227088E-2,-2.4218611E-1,3.997765E-2,2.8323859E-2,-9.48133E-3],"split_indices":[43,45,0,120,0,27,0,0,0],"split_type":[0,0,0,0,0,0,0,0,0],"sum_hessian":[1.369486E2,6.576237E1,7.118623E1,4.6510017E1,1.9252348E1,2.7058235E1,1.9451782E1,1.1887614E1,1.5170622E1],"tree_param":{"num_deleted":"0","num_feature":"153","num_nodes":"9","size_leaf_vector":"1"}},{"base_weights":[4.6181854E-2,-2.1512268E-1,5.801594E-1,-4.89086E-3,-2.3328686E-2,-3.314214E-4,3.9978914E-2,1.1809078E-2,-1.9687291E-2],"categories":[],"categories_nodes":[],"categories_segments":[],"categories_sizes":[],"default_left":[0,0,0,0,0,0,0,0,0],"id":41,"left_children":[1,3,5,7,-1,-1,-1,-1,-1],"loss_changes":[1.7911634E1,5.557338E0,8.905764E0,6.5958385E0,0E0,0E0,0E0,0E0,0E0],"parents":[2147483647,0,0,1,1,2,2,3,3],"right_children":[2,4,6,8,-1,-1,-1,-1,-1],"split_conditions":[-1.1099389E-1,-5.655374E-3,-1.542589E-1,-3.0398628E-2,-2.3328686E-2,-3.314214E-4,3.9978914E-2,1.1809078E-2,-1.9687291E-2],"split_indices":[137,64,66,75,0,0,0,0,0],"split_type":[0,0,0,0,0,0,0,0,0],"sum_hessian":[1.2730625E2,8.496611E1,4.234014E1,5.2260246E1,3.2705864E1,1.5161605E1,2.7178535E1,3.1755344E1,2.0504902E1],"tree_param":{"num_deleted":"0","num_feature":"153","num_nodes":"9","size_leaf_vector":"1"}},{"base_weights":[1.9745933E-2,4.3042877E-1,-3.6339524E-1,6.7655754E-1,-5.616647E-3,1.2768528E-2,-2.1099653E-2,3.9052214E-2,5.2676722E-3],"categories":[],"categories_nodes":[],"categories_segments":[],"categories_sizes":[],"default_left":[0,0,0,0,0,0,0,0,0],"id":42,"left_children":[1,3,5,7,-1,-1,-1,-1,-1],"loss_changes":[2.073745E1,9.050669E0,5.5829535E0,5.2037354E0,0E0,0E0,0E0,0E0,0E0],"parents":[2147483647,0,0,1,1,2,2,3,3],"right_children":[2,4,6,8,-1,-1,-1,-1,-1],"split_conditions":[-1.8443446E-1,4.3886594E-2,-6.9523877E-1,5.139172E-2,-5.616647E-3,1.2768528E-2,-2.1099653E-2,3.9052214E-2,5.2676722E-3],"split_indices":[120,138,12,39,0,0,0,0,0],"split_type":[0,0,0,0,0,0,0,0,0],"sum_hessian":[1.3161877E2,6.403845E1,6.758032E1,4.49931E1,1.9045351E1,1.0175345E1,5.7404972E1,3.1488531E1,1.3504567E1],"tree_param":{"num_deleted":"0","num_feature":"153","num_nodes":"9","size_leaf_vector":"1"}},{"base_weights":[1.9993637E-2,-1.2987388E-2,2.2882962E-1,2.7751258E-2,-1.3575036E-3,-8.680973E-3,2.1953357E-2],"categories":[],"categories_nodes":[],"categories_segments":[],"categories_sizes":[],"default_left":[0,0,0,0,0,0,0],"id":43,"left_children":[1,-1,3,-1,5,-1,-1],"loss_changes":[8.894947E0,0E0,7.996249E0,0E0,5.10688E0,0E0,0E0],"parents":[2147483647,0,0,2,2,4,4],"right_children":[2,-1,4,-1,6,-1,-1],"split_conditions":[-2.8766507E-1,-1.2987388E-2,-2.2394308E-1,2.7751258E-2,7.67883E-1,-8.680973E-3,2.1953357E-2],"split_indices":[119,0,52,0,49,0,0],"split_type":[0,0,0,0,0,0,0],"sum_hessian":[1.3359908E2,5.2003956E1,8.1595116E1,2.988541E1,5.1709705E1,3.773083E1,1.3978874E1],"tree_param":{"num_deleted":"0","num_feature":"153","num_nodes":"7","size_leaf_vector":"1"}},{"base_weights":[1.1375895E-2,-2.5537226E-1,2.8330484E-2,-0E0,-2.3323925E-2,-1.9862758E-2,1.43392505E-2],"categories":[],"categories_nodes":[],"categories_segments":[],"categories_sizes":[],"default_left":[0,0,0,0,0,0,0],"id":44,"left_children":[1,3,-1,5,-1,-1,-1],"loss_changes":[2.0580868E1,5.944794E0,0E0,6.7653856E0,0E0,0E0,0E0],"parents":[2147483647,0,0,1,1,3,3],"right_children":[2,4,-1,6,-1,-1,-1],"split_conditions":[-2.5477014E-2,-1.6761716E-1,2.8330484E-2,-3.2672182E-1,-2.3323925E-2,-1.9862758E-2,1.43392505E-2],"split_indices":[43,95,0,83,0,0,0],"split_type":[0,0,0,0,0,0,0],"sum_hessian":[1.1909817E2,8.3719345E1,3.5378822E1,4.4391453E1,3.9327896E1,1.8866182E1,2.5525272E1],"tree_param":{"num_deleted":"0","num_feature":"153","num_nodes":"7","size_leaf_vector":"1"}},{"base_weights":[2.3271441E-2,4.411597E-1,-2.5439924E-1,3.3556823E-2,-2.5652242E-3,1.8353958E-2,-1.6090767E-2],"categories":[],"categories_nodes":[],"categories_segments":[],"categories_sizes":[],"default_left":[0,0,0,0,0,0,0],"id":45,"left_children":[1,3,5,-1,-1,-1,-1],"loss_changes":[1.5514782E1,9.255107E0,6.28058E0,0E0,0E0,0E0,0E0],"parents":[2147483647,0,0,1,1,2,2],"right_children":[2,4,6,-1,-1,-1,-1],"split_conditions":[-4.6242824E-1,-5.8095347E-2,-8.219307E-1,3.3556823E-2,-2.5652242E-3,1.8353958E-2,-1.6090767E-2],"split_indices":[10,40,87,0,0,0,0],"split_type":[0,0,0,0,0,0,0],"sum_hessian":[1.3305258E2,5.3699947E1,7.935264E1,3.2707184E1,2.0992762E1,1.1173478E1,6.817916E1],"tree_param":{"num_deleted":"0","num_feature":"153","num_nodes":"7","size_leaf_vector":"1"}},{"base_weights":[1.5020755E-2,-2.8501463E-1,3.444976E-1,-2.1700157E-2,1.5327017E-3,3.4948602E-2,5.024639E-2,2.7535642E-2,-7.863284E-3],"categories":[],"categories_nodes":[],"categories_segments":[],"categories_sizes":[],"default_left":[0,0,0,0,0,0,0,0,0],"id":46,"left_children":[1,3,5,-1,-1,-1,7,-1,-1],"loss_changes":[1.3259412E1,4.994202E0,8.421595E0,0E0,0E0,0E0,5.6036415E0,0E0,0E0],"parents":[2147483647,0,0,1,1,2,2,6,6],"right_children":[2,4,6,-1,-1,-1,8,-1,-1],"split_conditions":[-1.1120401E-1,9.1692604E-2,-4.675381E-1,-2.1700157E-2,1.5327017E-3,3.4948602E-2,-5.3097177E-1,2.7535642E-2,-7.863284E-3],"split_indices":[120,39,45,0,0,0,100,0,0],"split_type":[0,0,0,0,0,0,0,0,0],"sum_hessian":[1.3388533E2,6.9427444E1,6.4457886E1,4.2228413E1,2.7199034E1,2.4529325E1,3.992856E1,1.1821795E1,2.8106766E1],"tree_param":{"num_deleted":"0","num_feature":"153","num_nodes":"9","size_leaf_vector":"1"}},{"base_weights":[-1.6861923E-2,-2.3007037E-1,3.197968E-2,-4.6595222E-1,7.093381E-2,4.180342E-3,-2.6212115E-2,-2.8808137E-2,3.5910925E-1,-8.020281E-3,3.0713167E-2],"categories":[],"categories_nodes":[],"categories_segments":[],"categories_sizes":[],"default_left":[0,0,0,0,0,0,0,0,0,0,0],"id":47,"left_children":[1,3,-1,5,7,-1,-1,-1,9,-1,-1],"loss_changes":[2.201698E1,7.8326344E0,0E0,5.0105057E0,9.784721E0,0E0,0E0,0E0,6.6841674E0,0E0,0E0],"parents":[2147483647,0,0,1,1,3,3,4,4,8,8],"right_children":[2,4,-1,6,8,-1,-1,-1,10,-1,-1],"split_conditions":[4.962721E-1,-4.0079778E-1,3.197968E-2,-6.43439E-1,-3.7628508E-1,4.180342E-3,-2.6212115E-2,-2.8808137E-2,-2.8932682E-1,-8.020281E-3,3.0713167E-2],"split_indices":[152,43,0,135,51,0,0,0,10,0,0],"split_type":[0,0,0,0,0,0,0,0,0,0,0],"sum_hessian":[1.3802057E2,1.0805375E2,2.9966812E1,6.1337612E1,4.671614E1,1.1591186E1,4.9746426E1,1.274682E1,3.396932E1,1.2839933E1,2.1129385E1],"tree_param":{"num_deleted":"0","num_feature":"153","num_nodes":"11","size_leaf_vector":"1"}},{"base_weights":[1.5931015E-4,3.8357582E-2,-9.031763E-2,-2.8489944E-1,4.1420174E-1,1.496115E-1,-1.9420674E-2,-2.5985525E-3,3.3494394E-2,-2.0970508E-2,3.1401467E-2],"categories":[],"categories_nodes":[],"categories_segments":[],"categories_sizes":[],"default_left":[0,0,0,0,0,0,0,0,0,0,0],"id":48,"left_children":[1,-1,3,5,7,9,-1,-1,-1,-1,-1],"loss_changes":[1.0653409E1,0E0,1.1391436E1,6.138913E0,5.71635E0,8.295145E0,0E0,0E0,0E0,0E0,0E0],"parents":[2147483647,0,0,2,2,3,3,4,4,5,5],"right_children":[2,-1,4,6,8,10,-1,-1,-1,-1,-1],"split_conditions":[-1.4582108E0,3.8357582E-2,2.1240017E-1,-6.993389E-1,-3.6410514E-1,-4.908465E-1,-1.9420674E-2,-2.5985525E-3,3.3494394E-2,-2.0970508E-2,3.1401467E-2],"split_indices":[139,0,22,40,136,151,0,0,0,0,0],"split_type":[0,0,0,0,0,0,0,0,0,0,0],"sum_hessian":[1.2894386E2,1.2370958E1,1.165729E2,8.4708786E1,3.1864117E1,2.2478312E1,6.2230473E1,1.3243855E1,1.862026E1,1.0360061E1,1.2118251E1],"tree_param":{"num_deleted":"0","num_feature":"153","num_nodes":"11","size_leaf_vector":"1"}},{"base_weights":[2.5902415E-2,3.9021075E-1,-2.2655645E-1,1.1238167E-1,3.5112906E-2,-1.8129667E-2,1.9657563E-1,-6.666567E-3,2.8829733E-2,3.1692408E-2,-1.059806E-2],"categories":[],"categories_nodes":[],"categories_segments":[],"categories_sizes":[],"default_left":[0,0,0,0,0,0,0,0,0,0,0],"id":49,"left_children":[1,3,5,7,-1,-1,9,-1,-1,-1,-1],"loss_changes":[1.3269905E1,6.5661755E0,6.9263854E0,5.56527E0,0E0,0E0,6.24373E0,0E0,0E0,0E0,0E0],"parents":[2147483647,0,0,1,1,2,2,3,3,6,6],"right_children":[2,4,6,8,-1,-1,10,-1,-1,-1,-1],"split_conditions":[-4.3120965E-1,2.50803E-1,3.981998E-1,-2.654907E-1,3.5112906E-2,-1.8129667E-2,-1.1099389E-1,-6.666567E-3,2.8829733E-2,3.1692408E-2,-1.059806E-2],"split_indices":[43,120,76,132,0,0,137,0,0,0,0],"split_type":[0,0,0,0,0,0,0,0,0,0,0],"sum_hessian":[1.4355675E2,5.9420883E1,8.413586E1,3.6362087E1,2.3058798E1,5.8533802E1,2.5602057E1,2.405047E1,1.2311615E1,1.19867735E1,1.3615284E1],"tree_param":{"num_deleted":"0","num_feature":"153","num_nodes":"11","size_leaf_vector":"1"}},{"base_weights":[-1.4206473E-2,-1.8519893E-1,3.0849265E-2,-2.0570057E-2,2.5854338E-2,-2.0516602E-2,3.3413932E-1,2.6878465E-2,-1.1958049E-2],"categories":[],"categories_nodes":[],"categories_segments":[],"categories_sizes":[],"default_left":[0,0,0,0,0,0,0,0,0],"id":50,"left_children":[1,3,-1,-1,5,-1,7,-1,-1],"loss_changes":[1.601364E1,6.676611E0,0E0,0E0,9.280572E0,0E0,6.7814646E0,0E0,0E0],"parents":[2147483647,0,0,1,1,4,4,6,6],"right_children":[2,4,-1,-1,6,-1,8,-1,-1],"split_conditions":[4.980742E-1,-1.9166473E-1,3.0849265E-2,-2.0570057E-2,-1.1352495E-1,-2.0516602E-2,5.982544E-1,2.6878465E-2,-1.1958049E-2],"split_indices":[137,10,0,0,8,0,124,0,0],"split_type":[0,0,0,0,0,0,0,0,0],"sum_hessian":[1.3064066E2,1.0620267E2,2.4437986E1,4.5571434E1,6.063123E1,2.2634775E1,3.7996452E1,2.6312325E1,1.1684131E1],"tree_param":{"num_deleted":"0","num_feature":"153","num_nodes":"9","size_leaf_vector":"1"}},{"base_weights":[5.8397405E-2,4.5528883E-1,-1.7192563E-1,3.233872E-2,-4.7727576E-3,4.4810534E-2,-2.6099341E-2,-1.6392866E-2,2.9793692E-1,4.062154E-2,9.3935407E-4],"categories":[],"categories_nodes":[],"categories_segments":[],"categories_sizes":[],"default_left":[0,0,0,0,0,0,0,0,0,0,0],"id":51,"left_children":[1,3,5,-1,-1,7,-1,-1,9,-1,-1],"loss_changes":[1.2338904E1,8.455599E0,8.064198E0,0E0,0E0,5.884695E0,0E0,0E0,5.8257313E0,0E0,0E0],"parents":[2147483647,0,0,1,1,2,2,5,5,8,8],"right_children":[2,4,6,-1,-1,8,-1,-1,10,-1,-1],"split_conditions":[-4.7072494E-1,3.7741974E-2,-2.3404633E-1,3.233872E-2,-4.7727576E-3,-4.383304E-1,-2.6099341E-2,-1.6392866E-2,-5.2470195E-1,4.062154E-2,9.3935407E-4],"split_indices":[10,40,132,0,0,141,0,0,41,0,0],"split_type":[0,0,0,0,0,0,0,0,0,0,0],"sum_hessian":[1.3371849E2,4.9751907E1,8.3966576E1,3.3309395E1,1.644251E1,5.522784E1,2.8738739E1,2.0065935E1,3.5161903E1,1.0158086E1,2.5003819E1],"tree_param":{"num_deleted":"0","num_feature":"153","num_nodes":"11","size_leaf_vector":"1"}},{"base_weights":[1.871475E-2,3.3880338E-1,-2.2295973E-1,-1.7882977E-2,2.387463E-2,-1.7476184E-2,2.0643467E-1,3.2482617E-2,-1.1215907E-2],"categories":[],"categories_nodes":[],"categories_segments":[],"categories_sizes":[],"default_left":[0,0,0,0,0,0,0,0,0],"id":52,"left_children":[1,3,5,-1,-1,-1,7,-1,-1],"loss_changes":[1.0026314E1,9.033077E0,5.721986E0,0E0,0E0,0E0,5.4801273E0,0E0,0E0],"parents":[2147483647,0,0,1,1,2,2,6,6],"right_children":[2,4,6,-1,-1,-1,8,-1,-1],"split_conditions":[-4.0884373E-1,-6.778538E-1,8.855282E-1,-1.7882977E-2,2.387463E-2,-1.7476184E-2,7.7062285E-1,3.2482617E-2,-1.1215907E-2],"split_indices":[137,2,116,0,0,0,128,0,0],"split_type":[0,0,0,0,0,0,0,0,0],"sum_hessian":[1.2900122E2,5.622118E1,7.278004E1,1.1965003E1,4.425618E1,5.1904808E1,2.087523E1,1.0032326E1,1.0842904E1],"tree_param":{"num_deleted":"0","num_feature":"153","num_nodes":"9","size_leaf_vector":"1"}},{"base_weights":[3.613147E-2,-1.8840231E-1,2.0676749E-2,-0E0,-2.7649594E-2,-1.7979143E-2,3.742141E-1,-6.8626803E-4,4.5247078E-2],"categories":[],"categories_nodes":[],"categories_segments":[],"categories_sizes":[],"default_left":[0,0,0,0,0,0,0,0,0],"id":53,"left_children":[1,3,-1,5,-1,-1,7,-1,-1],"loss_changes":[1.3951904E1,7.8258896E0,0E0,1.0051548E1,0E0,0E0,9.336361E0,0E0,0E0],"parents":[2147483647,0,0,1,1,3,3,6,6],"right_children":[2,4,-1,6,-1,-1,8,-1,-1],"split_conditions":[-8.056451E-2,1.2881236E-1,2.0676749E-2,-1.8694142E-1,-2.7649594E-2,-1.7979143E-2,-3.6030835E-1,-6.8626803E-4,4.5247078E-2],"split_indices":[43,111,0,51,0,0,151,0,0],"split_type":[0,0,0,0,0,0,0,0,0],"sum_hessian":[1.3963329E2,9.1931786E1,4.7701504E1,6.4720955E1,2.721083E1,3.062003E1,3.4100925E1,2.1175087E1,1.2925838E1],"tree_param":{"num_deleted":"0","num_feature":"153","num_nodes":"9","size_leaf_vector":"1"}},{"base_weights":[-4.8557045E-3,4.44944E-1,-1.8954769E-1,3.1149255E-2,-1.2962451E-2,2.675667E-2,-1.2937434E-2],"categories":[],"categories_nodes":[],"categories_segments":[],"categories_sizes":[],"default_left":[0,0,0,0,0,0,0],"id":54,"left_children":[1,3,5,-1,-1,-1,-1],"loss_changes":[1.1175376E1,8.105873E0,8.408302E0,0E0,0E0,0E0,0E0],"parents":[2147483647,0,0,1,1,2,2],"right_children":[2,4,6,-1,-1,-1,-1],"split_conditions":[-6.5180266E-1,-3.991245E-2,-1.4905937E0,3.1149255E-2,-1.2962451E-2,2.675667E-2,-1.2937434E-2],"split_indices":[129,50,44,0,0,0,0],"split_type":[0,0,0,0,0,0,0],"sum_hessian":[1.3577255E2,3.8880527E1,9.689202E1,2.881081E1,1.0069718E1,1.1096188E1,8.579584E1],"tree_param":{"num_deleted":"0","num_feature":"153","num_nodes":"7","size_leaf_vector":"1"}},{"base_weights":[2.769616E-2,3.7662005E-1,-1.0921789E-2,-2.1441993E-3,2.7476909E-2],"categories":[],"categories_nodes":[],"categories_segments":[],"categories_sizes":[],"default_left":[0,0,0,0,0],"id":55,"left_children":[1,3,-1,-1,-1],"loss_changes":[1.3189404E1,6.8868427E0,0E0,0E0,0E0],"parents":[2147483647,0,0,1,1],"right_children":[2,4,-1,-1,-1],"split_conditions":[-4.3447366E-1,-3.82895E-1,-1.0921789E-2,-2.1441993E-3,2.7476909E-2],"split_indices":[43,2,0,0,0],"split_type":[0,0,0,0,0],"sum_hessian":[1.3455045E2,6.0532505E1,7.401794E1,2.2220774E1,3.8311733E1],"tree_param":{"num_deleted":"0","num_feature":"153","num_nodes":"5","size_leaf_vector":"1"}},{"base_weights":[-0E0,-1.6782245E-1,2.415627E-2,-2.4820743E-2,-2.9148713E-2,-2.6105654E-1,3.1346142E-1,1.8455274E-2,-2.005884E-2,2.879592E-2,-1.0435931E-2],"categories":[],"categories_nodes":[],"categories_segments":[],"categories_sizes":[],"default_left":[0,0,0,0,0,0,0,0,0,0,0],"id":56,"left_children":[1,3,-1,-1,5,7,9,-1,-1,-1,-1],"loss_changes":[1.2493969E1,5.510141E0,0E0,0E0,6.1004796E0,6.4930296E0,6.093209E0,0E0,0E0,0E0,0E0],"parents":[2147483647,0,0,1,1,4,4,5,5,6,6],"right_children":[2,4,-1,-1,6,8,10,-1,-1,-1,-1],"split_conditions":[1.1144621E-1,-3.3706385E-1,2.415627E-2,-2.4820743E-2,4.6398473E-1,-6.1375266E-1,8.226992E-2,1.8455274E-2,-2.005884E-2,2.879592E-2,-1.0435931E-2],"split_indices":[138,114,0,0,139,135,89,0,0,0,0],"split_type":[0,0,0,0,0,0,0,0,0,0,0],"sum_hessian":[1.3330418E2,1.02410286E2,3.0893896E1,2.536227E1,7.704802E1,4.6655006E1,3.0393013E1,1.0144334E1,3.651067E1,1.905171E1,1.1341304E1],"tree_param":{"num_deleted":"0","num_feature":"153","num_nodes":"11","size_leaf_vector":"1"}},{"base_weights":[4.739875E-3,2.4929866E-1,-3.0360532E-1,2.180612E-2,-1.1324919E-2,-2.0537753E-2,1.1911778E-2],"categories":[],"categories_nodes":[],"categories_segments":[],"categories_sizes":[],"default_left":[0,0,0,0,0,0,0],"id":57,"left_children":[1,3,5,-1,-1,-1,-1],"loss_changes":[1.0166443E1,9.975572E0,5.906698E0,0E0,0E0,0E0,0E0],"parents":[2147483647,0,0,1,1,2,2],"right_children":[2,4,6,-1,-1,-1,-1],"split_conditions":[-1.1120401E-1,3.7741974E-2,9.5999897E-1,2.180612E-2,-1.1324919E-2,-2.0537753E-2,1.1911778E-2],"split_indices":[120,40,117,0,0,0,0],"split_type":[0,0,0,0,0,0,0],"sum_hessian":[1.3511086E2,7.608462E1,5.902624E1,5.1335854E1,2.4748762E1,4.6130497E1,1.2895744E1],"tree_param":{"num_deleted":"0","num_feature":"153","num_nodes":"7","size_leaf_vector":"1"}},{"base_weights":[4.684093E-3,-2.2340126E-1,2.8572506E-1,-1.6314268E-2,1.2672007E-2,3.4881115E-2,6.226954E-2,2.2519093E-2,-9.196843E-3],"categories":[],"categories_nodes":[],"categories_segments":[],"categories_sizes":[],"default_left":[0,0,0,0,0,0,0,0,0],"id":58,"left_children":[1,3,5,-1,-1,-1,7,-1,-1],"loss_changes":[8.001329E0,5.402605E0,6.212184E0,0E0,0E0,0E0,5.162857E0,0E0,0E0],"parents":[2147483647,0,0,1,1,2,2,6,6],"right_children":[2,4,6,-1,-1,-1,8,-1,-1],"split_conditions":[-2.0781439E-2,6.742289E-1,-4.9154285E-1,-1.6314268E-2,1.2672007E-2,3.4881115E-2,1.6729668E-1,2.2519093E-2,-9.196843E-3],"split_indices":[119,0,0,0,0,0,10,0,0],"split_type":[0,0,0,0,0,0,0,0,0],"sum_hessian":[1.2442748E2,6.788596E1,5.6541515E1,5.2947014E1,1.4938951E1,1.6455797E1,4.008572E1,1.558803E1,2.4497688E1],"tree_param":{"num_deleted":"0","num_feature":"153","num_nodes":"9","size_leaf_vector":"1"}},{"base_weights":[-2.7747892E-2,-1.1110588E-2,4.0187806E-1,-3.8474537E-3,2.964984E-2],"categories":[],"categories_nodes":[],"categories_segments":[],"categories_sizes":[],"default_left":[0,0,0,0,0],"id":59,"left_children":[1,-1,3,-1,-1],"loss_changes":[1.3233253E1,0E0,6.6749487E0,0E0,0E0],"parents":[2147483647,0,0,2,2],"right_children":[2,-1,4,-1,-1],"split_conditions":[-1.6392532E-1,-1.1110588E-2,-4.9861816E-1,-3.8474537E-3,2.964984E-2],"split_indices":[137,0,45,0,0],"split_type":[0,0,0,0,0],"sum_hessian":[1.3524007E2,8.886605E1,4.637401E1,1.6424181E1,2.9949827E1],"tree_param":{"num_deleted":"0","num_feature":"153","num_nodes":"5","size_leaf_vector":"1"}},{"base_weights":[2.973511E-2,5.0439686E-1,-9.7742945E-2,3.688795E-2,-4.3688565E-3,7.830356E-3,-1.3504532E-2],"categories":[],"categories_nodes":[],"categories_segments":[],"categories_sizes":[],"default_left":[0,0,0,0,0,0,0],"id":60,"left_children":[1,3,5,-1,-1,-1,-1],"loss_changes":[8.163441E0,6.329244E0,6.2251296E0,0E0,0E0,0E0,0E0],"parents":[2147483647,0,0,1,1,2,2],"right_children":[2,4,6,-1,-1,-1,-1],"split_conditions":[-8.7398034E-1,8.599316E-1,-3.3693546E-1,3.688795E-2,-4.3688565E-3,7.830356E-3,-1.3504532E-2],"split_indices":[129,59,55,0,0,0,0],"split_type":[0,0,0,0,0,0,0],"sum_hessian":[1.3217947E2,2.8658844E1,1.0352063E2,1.863744E1,1.0021405E1,4.4159077E1,5.9361557E1],"tree_param":{"num_deleted":"0","num_feature":"153","num_nodes":"7","size_leaf_vector":"1"}},{"base_weights":[3.328872E-2,-2.107516E-1,2.8601474E-1,-1.7052311E-2,1.3389113E-2,3.333978E-2,-0E0],"categories":[],"categories_nodes":[],"categories_segments":[],"categories_sizes":[],"default_left":[0,0,0,0,0,0,0],"id":61,"left_children":[1,3,5,-1,-1,-1,-1],"loss_changes":[8.215751E0,6.3782926E0,9.1082535E0,0E0,0E0,0E0,0E0],"parents":[2147483647,0,0,1,1,2,2],"right_children":[2,4,6,-1,-1,-1,-1],"split_conditions":[-5.3617354E-3,6.754326E-1,-4.985079E-1,-1.7052311E-2,1.3389113E-2,3.333978E-2,-0E0],"split_indices":[34,0,142,0,0,0,0],"split_type":[0,0,0,0,0,0,0],"sum_hessian":[1.3271312E2,6.669809E1,6.601502E1,4.991476E1,1.678333E1,2.4486366E1,4.152866E1],"tree_param":{"num_deleted":"0","num_feature":"153","num_nodes":"7","size_leaf_vector":"1"}},{"base_weights":[2.7304938E-2,-2.0827922E-1,5.6192636E-1,7.3318277E-3,-2.3527745E-2,-0E0,3.6331996E-2,-2.2397213E-2,9.3493685E-3],"categories":[],"categories_nodes":[],"categories_segments":[],"categories_sizes":[],"default_left":[0,0,0,0,0,0,0,0,0],"id":62,"left_children":[1,3,5,7,-1,-1,-1,-1,-1],"loss_changes":[1.6487913E1,6.6845865E0,6.4207935E0,5.754374E0,0E0,0E0,0E0,0E0,0E0],"parents":[2147483647,0,0,1,1,2,2,3,3],"right_children":[2,4,6,8,-1,-1,-1,-1,-1],"split_conditions":[-1.3800503E-1,-6.0640782E-2,-5.747682E-1,-5.432416E-1,-2.3527745E-2,-0E0,3.6331996E-2,-2.2397213E-2,9.3493685E-3],"split_indices":[138,64,72,77,0,0,0,0,0],"split_type":[0,0,0,0,0,0,0,0,0],"sum_hessian":[1.2976794E2,8.954761E1,4.0220333E1,5.3738976E1,3.580863E1,1.3046322E1,2.7174011E1,1.4733663E1,3.9005314E1],"tree_param":{"num_deleted":"0","num_feature":"153","num_nodes":"9","size_leaf_vector":"1"}},{"base_weights":[-3.8632948E-2,2.585959E-1,-1.2270041E-2,3.1177726E-2,-2.279991E-1,-2.7202643E-2,1.7040271E-2],"categories":[],"categories_nodes":[],"categories_segments":[],"categories_sizes":[],"default_left":[0,0,0,0,0,0,0],"id":63,"left_children":[1,3,-1,-1,5,-1,-1],"loss_changes":[9.30612E0,1.2985215E1,0E0,0E0,6.880363E0,0E0,0E0],"parents":[2147483647,0,0,1,1,4,4],"right_children":[2,4,-1,-1,6,-1,-1],"split_conditions":[-1.8443446E-1,-1.0852459E-1,-1.2270041E-2,3.1177726E-2,5.175042E-1,-2.7202643E-2,1.7040271E-2],"split_indices":[120,132,0,0,22,0,0],"split_type":[0,0,0,0,0,0,0],"sum_hessian":[1.2783465E2,5.696588E1,7.086877E1,2.9674055E1,2.7291826E1,1.7001318E1,1.0290508E1],"tree_param":{"num_deleted":"0","num_feature":"153","num_nodes":"7","size_leaf_vector":"1"}},{"base_weights":[-2.540825E-2,2.705516E-1,-2.3885107E-1,-1.6398529E-2,2.1966312E-2,-1.9798512E-2,6.389369E-3],"categories":[],"categories_nodes":[],"categories_segments":[],"categories_sizes":[],"default_left":[0,0,0,0,0,0,0],"id":64,"left_children":[1,3,5,-1,-1,-1,-1],"loss_changes":[8.362924E0,8.462896E0,6.6893773E0,0E0,0E0,0E0,0E0],"parents":[2147483647,0,0,1,1,2,2],"right_children":[2,4,6,-1,-1,-1,-1],"split_conditions":[-4.358687E-1,-6.1377704E-1,3.023854E-1,-1.6398529E-2,2.1966312E-2,-1.9798512E-2,6.389369E-3],"split_indices":[43,56,100,0,0,0,0],"split_type":[0,0,0,0,0,0,0],"sum_hessian":[1.3259036E2,5.4757774E1,7.783258E1,1.4167764E1,4.059001E1,5.04093E1,2.742328E1],"tree_param":{"num_deleted":"0","num_feature":"153","num_nodes":"7","size_leaf_vector":"1"}},{"base_weights":[-2.1127691E-2,-8.582092E-3,2.332708E-2],"categories":[],"categories_nodes":[],"categories_segments":[],"categories_sizes":[],"default_left":[0,0,0],"id":65,"left_children":[1,-1,-1],"loss_changes":[1.2900022E1,0E0,0E0],"parents":[2147483647,0,0],"right_children":[2,-1,-1],"split_conditions":[1.9560446E-1,-8.582092E-3,2.332708E-2],"split_indices":[43,0,0],"split_type":[0,0,0],"sum_hessian":[1.316E2,1.0053182E2,3.1068182E1],"tree_param":{"num_deleted":"0","num_feature":"153","num_nodes":"3","size_leaf_vector":"1"}},{"base_weights":[-0E0,4.7735894E-1,-1.6099311E-1,3.4428146E-2,-1.5479466E-3,2.2370572E-1,-1.4138673E-2,3.0797187E-2,-6.6946708E-3],"categories":[],"categories_nodes":[],"categories_segments":[],"categories_sizes":[],"default_left":[0,0,0,0,0,0,0,0,0],"id":66,"left_children":[1,3,5,-1,-1,7,-1,-1,-1],"loss_changes":[1.0098512E1,5.7331357E0,6.2088413E0,0E0,0E0,5.4618745E0,0E0,0E0,0E0],"parents":[2147483647,0,0,1,1,2,2,5,5],"right_children":[2,4,6,-1,-1,8,-1,-1,-1],"split_conditions":[-8.284015E-1,2.8012243E-1,-4.9017015E-1,3.4428146E-2,-1.5479466E-3,1.5372147E-1,-1.4138673E-2,3.0797187E-2,-6.6946708E-3],"split_indices":[129,75,56,0,0,129,0,0,0],"split_type":[0,0,0,0,0,0,0,0,0],"sum_hessian":[1.3019286E2,3.32951E1,9.689775E1,2.1057026E1,1.2238078E1,2.8400305E1,6.8497444E1,1.2880711E1,1.5519593E1],"tree_param":{"num_deleted":"0","num_feature":"153","num_nodes":"9","size_leaf_vector":"1"}},{"base_weights":[-2.2283532E-3,-2.5247264E-1,2.833068E-1,-1.8989116E-2,1.19200805E-2,-1.8747969E-2,4.7355303E-1,3.5770964E-2,2.3918892E-3],"categories":[],"categories_nodes":[],"categories_segments":[],"categories_sizes":[],"default_left":[0,0,0,0,0,0,0,0,0],"id":67,"left_children":[1,3,5,-1,-1,-1,7,-1,-1],"loss_changes":[9.92228E0,7.411563E0,8.7610655E0,0E0,0E0,0E0,7.1819086E0,0E0,0E0],"parents":[2147483647,0,0,1,1,2,2,6,6],"right_children":[2,4,6,-1,-1,-1,8,-1,-1],"split_conditions":[-3.0004092E-2,6.0993767E-1,-6.1377704E-1,-1.8989116E-2,1.19200805E-2,-1.8747969E-2,-3.6751047E-1,3.5770964E-2,2.3918892E-3],"split_indices":[120,52,56,0,0,0,50,0,0],"split_type":[0,0,0,0,0,0,0,0,0],"sum_hessian":[1.3903862E2,7.485751E1,6.4181114E1,5.5922096E1,1.8935417E1,1.3022291E1,5.115882E1,2.7242327E1,2.3916494E1],"tree_param":{"num_deleted":"0","num_feature":"153","num_nodes":"9","size_leaf_vector":"1"}},{"base_weights":[-5.539353E-3,-2.12976E-1,5.056317E-1,-0E0,-2.1239433E-2,-6.4067277E-3,3.212853E-2,-1.6074797E-2,1.6682342E-2],"categories":[],"categories_nodes":[],"categories_segments":[],"categories_sizes":[],"default_left":[0,0,0,0,0,0,0,0,0],"id":68,"left_children":[1,3,5,7,-1,-1,-1,-1,-1],"loss_changes":[1.4649339E1,5.922112E0,6.3592396E0,8.037112E0,0E0,0E0,0E0,0E0,0E0],"parents":[2147483647,0,0,1,1,2,2,3,3],"right_children":[2,4,6,8,-1,-1,-1,-1,-1],"split_conditions":[6.6026986E-2,-1.3632375E-1,-4.0195313E-1,-2.1750833E-1,-2.1239433E-2,-6.4067277E-3,3.212853E-2,-1.6074797E-2,1.6682342E-2],"split_indices":[137,22,90,14,0,0,0,0,0],"split_type":[0,0,0,0,0,0,0,0,0],"sum_hessian":[1.3927711E2,9.963874E1,3.963838E1,5.6217E1,4.342174E1,1.0064044E1,2.9574333E1,2.8534142E1,2.7682858E1],"tree_param":{"num_deleted":"0","num_feature":"153","num_nodes":"9","size_leaf_vector":"1"}},{"base_weights":[-8.161721E-3,3.5794932E-1,-2.7197576E-1,2.7954645E-2,-3.9592464E-3,1.8304009E-2,-1.6853485E-2],"categories":[],"categories_nodes":[],"categories_segments":[],"categories_sizes":[],"default_left":[0,0,0,0,0,0,0],"id":69,"left_children":[1,3,5,-1,-1,-1,-1],"loss_changes":[1.2407528E1,7.111231E0,6.1306353E0,0E0,0E0,0E0,0E0],"parents":[2147483647,0,0,1,1,2,2],"right_children":[2,4,6,-1,-1,-1,-1],"split_conditions":[-3.713501E-1,-5.690838E-2,-9.053341E-1,2.7954645E-2,-3.9592464E-3,1.8304009E-2,-1.6853485E-2],"split_indices":[120,40,81,0,0,0,0],"split_type":[0,0,0,0,0,0,0],"sum_hessian":[1.2882372E2,5.3306015E1,7.55177E1,3.306101E1,2.0245007E1,1.0396772E1,6.5120926E1],"tree_param":{"num_deleted":"0","num_feature":"153","num_nodes":"7","size_leaf_vector":"1"}},{"base_weights":[-5.59641E-2,6.1894964E-2,-2.596695E-2,-1.1990489E-1,3.9254948E-1,-2.47504E-1,1.9365057E-2,-1.009836E-2,2.6682181E-2,-2.006278E-2,7.525141E-3],"categories":[],"categories_nodes":[],"categories_segments":[],"categories_sizes":[],"default_left":[0,0,0,0,0,0,0,0,0,0,0],"id":70,"left_children":[1,3,-1,5,7,9,-1,-1,-1,-1,-1],"loss_changes":[8.948876E0,6.8060675E0,0E0,5.060768E0,5.7920113E0,5.442476E0,0E0,0E0,0E0,0E0,0E0],"parents":[2147483647,0,0,1,1,3,3,4,4,5,5],"right_children":[2,4,-1,6,8,10,-1,-1,-1,-1,-1],"split_conditions":[6.6750586E-1,2.6695874E-1,-2.596695E-2,6.4352715E-1,-5.569055E-1,3.1299334E-2,1.9365057E-2,-1.009836E-2,2.6682181E-2,-2.006278E-2,7.525141E-3],"split_indices":[135,120,0,52,55,10,0,0,0,0,0],"split_type":[0,0,0,0,0,0,0,0,0,0,0],"sum_hessian":[1.3627411E2,1.1137651E2,2.4897596E1,7.107067E1,4.030584E1,5.8600533E1,1.24701395E1,1.0128734E1,3.0177105E1,3.939373E1,1.9206802E1],"tree_param":{"num_deleted":"0","num_feature":"153","num_nodes":"11","size_leaf_vector":"1"}},{"base_weights":[-5.987734E-4,-2.158564E-1,3.996989E-1,-2.1225687E-2,-0E0,2.7179537E-2,-1.5544167E-2,2.9751316E-1,-1.8696258E-2,2.6932742E-2,-9.680154E-3],"categories":[],"categories_nodes":[],"categories_segments":[],"categories_sizes":[],"default_left":[0,0,0,0,0,0,0,0,0,0,0],"id":71,"left_children":[1,3,5,-1,7,-1,-1,9,-1,-1,-1],"loss_changes":[1.1334087E1,5.1183815E0,7.9969707E0,0E0,6.248349E0,0E0,0E0,5.0170527E0,0E0,0E0,0E0],"parents":[2147483647,0,0,1,1,2,2,4,4,7,7],"right_children":[2,4,6,-1,8,-1,-1,10,-1,-1,-1],"split_conditions":[9.1091216E-2,-3.5898328E-1,9.900794E-1,-2.1225687E-2,4.8166104E-3,2.7179537E-2,-1.5544167E-2,2.685165E-1,-1.8696258E-2,2.6932742E-2,-9.680154E-3],"split_indices":[40,18,111,0,30,0,0,19,0,0,0],"split_type":[0,0,0,0,0,0,0,0,0,0,0],"sum_hessian":[1.3240353E2,8.67632E1,4.5640335E1,3.8145763E1,4.8617435E1,3.551145E1,1.0128881E1,2.873326E1,1.9884174E1,1.8190722E1,1.0542539E1],"tree_param":{"num_deleted":"0","num_feature":"153","num_nodes":"11","size_leaf_vector":"1"}},{"base_weights":[4.0676147E-2,4.0715975E-1,-1.1862613E-2,2.8838336E-2,-5.239251E-3],"categories":[],"categories_nodes":[],"categories_segments":[],"categories_sizes":[],"default_left":[0,0,0,0,0],"id":72,"left_children":[1,3,-1,-1,-1],"loss_changes":[1.4387948E1,8.148212E0,0E0,0E0,0E0],"parents":[2147483647,0,0,1,1],"right_children":[2,4,-1,-1,-1],"split_conditions":[-3.433666E-1,1.178832E-2,-1.1862613E-2,2.8838336E-2,-5.239251E-3],"split_indices":[10,40,0,0,0],"split_type":[0,0,0,0,0],"sum_hessian":[1.2433699E2,5.802587E1,6.631112E1,3.946639E1,1.8559483E1],"tree_param":{"num_deleted":"0","num_feature":"153","num_nodes":"5","size_leaf_vector":"1"}},{"base_weights":[-3.718237E-2,-1.26673E-2,2.681198E-1,-2.1641484E-2,2.1241663E-2],"categories":[],"categories_nodes":[],"categories_segments":[],"categories_sizes":[],"default_left":[0,0,0,0,0],"id":73,"left_children":[1,-1,3,-1,-1],"loss_changes":[1.0129925E1,0E0,9.965048E0,0E0,0E0],"parents":[2147483647,0,0,2,2],"right_children":[2,-1,4,-1,-1],"split_conditions":[-3.0004092E-2,-1.26673E-2,-7.5473726E-1,-2.1641484E-2,2.1241663E-2],"split_indices":[120,0,89,0,0],"split_type":[0,0,0,0,0],"sum_hessian":[1.2984741E2,7.144246E1,5.8404957E1,1.2703084E1,4.5701874E1],"tree_param":{"num_deleted":"0","num_feature":"153","num_nodes":"5","size_leaf_vector":"1"}},{"base_weights":[2.735588E-2,-1.7703263E-1,3.6733383E-1,-2.1112243E-2,4.201687E-2,-6.522644E-3,2.430341E-2,1.6962478E-2,-1.1459822E-2],"categories":[],"categories_nodes":[],"categories_segments":[],"categories_sizes":[],"default_left":[0,0,0,0,0,0,0,0,0],"id":74,"left_children":[1,3,5,-1,7,-1,-1,-1,-1],"loss_changes":[9.3233795E0,5.780756E0,5.256109E0,0E0,5.1447835E0,0E0,0E0,0E0,0E0],"parents":[2147483647,0,0,1,1,2,2,4,4],"right_children":[2,4,6,-1,8,-1,-1,-1,-1],"split_conditions":[-1.8307754E-1,-1.4140728E-1,-5.851608E-1,-2.1112243E-2,-4.2813185E-1,-6.522644E-3,2.430341E-2,1.6962478E-2,-1.1459822E-2],"split_indices":[43,117,12,0,134,0,0,0,0],"split_type":[0,0,0,0,0,0,0,0,0],"sum_hessian":[1.3305927E2,8.235361E1,5.070566E1,3.4839832E1,4.7513775E1,1.3234609E1,3.747105E1,2.2819483E1,2.469429E1],"tree_param":{"num_deleted":"0","num_feature":"153","num_nodes":"9","size_leaf_vector":"1"}},{"base_weights":[-0E0,5.2038E-1,-1.7070611E-1,3.3250432E-2,-1.6643071E-3,2.6289156E-2,-2.81037E-1,1.0062243E-2,-3.9134383E-1,8.30235E-3,-2.1958292E-2],"categories":[],"categories_nodes":[],"categories_segments":[],"categories_sizes":[],"default_left":[0,0,0,0,0,0,0,0,0,0,0],"id":75,"left_children":[1,3,5,-1,-1,-1,7,-1,9,-1,-1],"loss_changes":[1.271924E1,5.203741E0,9.005894E0,0E0,0E0,0E0,5.3724036E0,0E0,5.3735447E0,0E0,0E0],"parents":[2147483647,0,0,1,1,2,2,6,6,8,8],"right_children":[2,4,6,-1,-1,-1,8,-1,10,-1,-1],"split_conditions":[-8.284015E-1,8.852508E-1,-1.4927261E0,3.3250432E-2,-1.6643071E-3,2.6289156E-2,-8.997217E-1,1.0062243E-2,-9.2810714E-1,8.30235E-3,-2.1958292E-2],"split_indices":[129,103,140,0,0,0,36,0,40,0,0],"split_type":[0,0,0,0,0,0,0,0,0,0,0],"sum_hessian":[1.4201544E2,3.550846E1,1.0650698E2,2.5119337E1,1.0389125E1,1.2775038E1,9.373194E1,1.5926219E1,7.7805725E1,1.2294894E1,6.5510826E1],"tree_param":{"num_deleted":"0","num_feature":"153","num_nodes":"11","size_leaf_vector":"1"}},{"base_weights":[5.5760976E-2,-9.292369E-3,3.1575477E-1,2.8060304E-2,-8.639958E-4],"categories":[],"categories_nodes":[],"categories_segments":[],"categories_sizes":[],"default_left":[0,0,0,0,0],"id":76,"left_children":[1,-1,3,-1,-1],"loss_changes":[8.992527E0,0E0,7.5791125E0,0E0,0E0],"parents":[2147483647,0,0,2,2],"right_children":[2,-1,4,-1,-1],"split_conditions":[-9.788114E-2,-9.292369E-3,-3.2930565E-1,2.8060304E-2,-8.639958E-4],"split_indices":[119,0,45,0,0],"split_type":[0,0,0,0,0],"sum_hessian":[1.2737202E2,6.168098E1,6.569103E1,3.363157E1,3.2059464E1],"tree_param":{"num_deleted":"0","num_feature":"153","num_nodes":"5","size_leaf_vector":"1"}},{"base_weights":[2.6548998E-2,-2.0171955E-1,1.9814724E-2,-6.346765E-4,-2.4051558E-2,-1.6478686E-2,1.0742011E-2],"categories":[],"categories_nodes":[],"categories_segments":[],"categories_sizes":[],"default_left":[0,0,0,0,0,0,0],"id":77,"left_children":[1,3,-1,5,-1,-1,-1],"loss_changes":[1.2680658E1,5.672559E0,0E0,5.1178074E0,0E0,0E0,0E0],"parents":[2147483647,0,0,1,1,3,3],"right_children":[2,4,-1,6,-1,-1,-1],"split_conditions":[-1.512569E-1,-4.2544343E-2,1.9814724E-2,-1.3313232E-1,-2.4051558E-2,-1.6478686E-2,1.0742011E-2],"split_indices":[137,64,0,52,0,0,0],"split_type":[0,0,0,0,0,0,0],"sum_hessian":[1.2785196E2,8.296247E1,4.488949E1,5.3619225E1,2.9343243E1,2.1860813E1,3.1758411E1],"tree_param":{"num_deleted":"0","num_feature":"153","num_nodes":"7","size_leaf_vector":"1"}},{"base_weights":[-5.1191963E-2,2.351632E-1,-1.5056137E-2,3.8929453E-1,-1.3383031E-2,6.7509753E-3,3.8875032E-2],"categories":[],"categories_nodes":[],"categories_segments":[],"categories_sizes":[],"default_left":[0,0,0,0,0,0,0],"id":78,"left_children":[1,3,-1,5,-1,-1,-1],"loss_changes":[1.0854828E1,5.4065285E0,0E0,5.564412E0,0E0,0E0,0E0],"parents":[2147483647,0,0,1,1,3,3],"right_children":[2,4,-1,6,-1,-1,-1],"split_conditions":[-3.5849497E-2,4.9897242E-2,-1.5056137E-2,7.9480726E-1,-1.3383031E-2,6.7509753E-3,3.8875032E-2],"split_indices":[15,50,0,30,0,0,0],"split_type":[0,0,0,0,0,0,0],"sum_hessian":[1.273414E2,6.4072945E1,6.3268456E1,5.0512623E1,1.3560326E1,3.5163322E1,1.5349298E1],"tree_param":{"num_deleted":"0","num_feature":"153","num_nodes":"7","size_leaf_vector":"1"}},{"base_weights":[2.243901E-2,1.5269464E-2,-1.1215219E-2],"categories":[],"categories_nodes":[],"categories_segments":[],"categories_sizes":[],"default_left":[0,0,0],"id":79,"left_children":[1,-1,-1],"loss_changes":[1.1676203E1,0E0,0E0],"parents":[2147483647,0,0],"right_children":[2,-1,-1],"split_conditions":[-4.1045466E-1,1.5269464E-2,-1.1215219E-2],"split_indices":[137,0,0],"split_type":[0,0,0],"sum_hessian":[1.2529865E2,5.8322124E1,6.6976524E1],"tree_param":{"num_deleted":"0","num_feature":"153","num_nodes":"3","size_leaf_vector":"1"}},{"base_weights":[7.875395E-2,-1.269757E-1,4.4283602E-1,-9.817784E-3,2.2891637E-2,2.7511116E-2,-7.7138194E-3],"categories":[],"categories_nodes":[],"categories_segments":[],"categories_sizes":[],"default_left":[0,0,0,0,0,0,0],"id":80,"left_children":[1,3,5,-1,-1,-1,-1],"loss_changes":[1.0143218E1,5.4136105E0,6.0365067E0,0E0,0E0,0E0,0E0],"parents":[2147483647,0,0,1,1,2,2],"right_children":[2,4,6,-1,-1,-1,-1],"split_conditions":[1.1575078E-1,8.5151505E-1,1.0163771E0,-9.817784E-3,2.2891637E-2,2.7511116E-2,-7.7138194E-3],"split_indices":[131,141,112,0,0,0,0],"split_type":[0,0,0,0,0,0,0],"sum_hessian":[1.3370375E2,8.471653E1,4.8987217E1,7.407125E1,1.0645278E1,3.790171E1,1.1085509E1],"tree_param":{"num_deleted":"0","num_feature":"153","num_nodes":"7","size_leaf_vector":"1"}},{"base_weights":[9.008835E-4,3.408314E-2,-1.0671253E-1,4.2359453E-1,-2.6362017E-1,3.564748E-2,-3.734042E-3,-1.7463006E-2,7.0350524E-3],"categories":[],"categories_nodes":[],"categories_segments":[],"categories_sizes":[],"default_left":[0,0,0,0,0,0,0,0,0],"id":81,"left_children":[1,-1,3,5,7,-1,-1,-1,-1],"loss_changes":[1.0594246E1,0E0,8.824572E0,5.146398E0,5.0352163E0,0E0,0E0,0E0,0E0],"parents":[2147483647,0,0,2,2,3,3,4,4],"right_children":[2,-1,4,6,8,-1,-1,-1,-1],"split_conditions":[-1.4443861E0,3.408314E-2,-8.7398034E-1,-3.72399E-1,2.1240017E-1,3.564748E-2,-3.734042E-3,-1.7463006E-2,7.0350524E-3],"split_indices":[44,0,129,137,22,0,0,0,0],"split_type":[0,0,0,0,0,0,0,0,0],"sum_hessian":[1.21978485E2,1.5144092E1,1.0683439E2,2.3801006E1,8.303339E1,1.3792333E1,1.0008674E1,6.3263756E1,1.9769632E1],"tree_param":{"num_deleted":"0","num_feature":"153","num_nodes":"9","size_leaf_vector":"1"}},{"base_weights":[1.0210446E-2,-2.3179075E-1,1.1174517E-2,9.754431E-3,-1.7833542E-2],"categories":[],"categories_nodes":[],"categories_segments":[],"categories_sizes":[],"default_left":[0,0,0,0,0],"id":82,"left_children":[1,3,-1,-1,-1],"loss_changes":[7.236578E0,5.021044E0,0E0,0E0,0E0],"parents":[2147483647,0,0,1,1],"right_children":[2,4,-1,-1,-1],"split_conditions":[-5.1688664E-2,-2.4076521E-1,1.1174517E-2,9.754431E-3,-1.7833542E-2],"split_indices":[119,21,0,0,0],"split_type":[0,0,0,0,0],"sum_hessian":[1.2050258E2,6.013267E1,6.0369904E1,1.635005E1,4.378262E1],"tree_param":{"num_deleted":"0","num_feature":"153","num_nodes":"5","size_leaf_vector":"1"}},{"base_weights":[-4.772855E-2,-8.853129E-3,2.0902192E-2],"categories":[],"categories_nodes":[],"categories_segments":[],"categories_sizes":[],"default_left":[0,0,0],"id":83,"left_children":[1,-1,-1],"loss_changes":[1.0718844E1,0E0,0E0],"parents":[2147483647,0,0],"right_children":[2,-1,-1],"split_conditions":[6.890712E-1,-8.853129E-3,2.0902192E-2],"split_indices":[50,0,0],"split_type":[0,0,0],"sum_hessian":[1.3036986E2,1.0123026E2,2.9139593E1],"tree_param":{"num_deleted":"0","num_feature":"153","num_nodes":"3","size_leaf_vector":"1"}},{"base_weights":[-1.798055E-2,3.4216035E-2,-1.11819215E-1,4.0253642E-1,-1.0702126E-2,3.896619E-2,-1.1955008E-3],"categories":[],"categories_nodes":[],"categories_segments":[],"categories_sizes":[],"default_left":[0,0,0,0,0,0,0],"id":84,"left_children":[1,-1,3,5,-1,-1,-1],"loss_changes":[9.237946E0,0E0,7.790391E0,5.2466183E0,0E0,0E0,0E0],"parents":[2147483647,0,0,2,2,3,3],"right_children":[2,-1,4,6,-1,-1,-1],"split_conditions":[-1.4443861E0,3.4216035E-2,-8.8854444E-1,5.2683413E-1,-1.0702126E-2,3.896619E-2,-1.1955008E-3],"split_indices":[44,0,130,108,0,0,0],"split_type":[0,0,0,0,0,0,0],"sum_hessian":[1.25481224E2,1.2606135E1,1.1287509E2,2.287783E1,8.999726E1,1.1051199E1,1.1826632E1],"tree_param":{"num_deleted":"0","num_feature":"153","num_nodes":"7","size_leaf_vector":"1"}},{"base_weights":[-3.4318626E-2,-1.1055916E-2,2.641012E-1,2.7638104E-2,-8.1963965E-4],"categories":[],"categories_nodes":[],"categories_segments":[],"categories_sizes":[],"default_left":[0,0,0,0,0],"id":85,"left_children":[1,-1,3,-1,-1],"loss_changes":[7.9394636E0,0E0,5.593894E0,0E0,0E0],"parents":[2147483647,0,0,2,2],"right_children":[2,-1,4,-1,-1],"split_conditions":[-4.159421E-2,-1.1055916E-2,-3.9823413E-1,2.7638104E-2,-8.1963965E-4],"split_indices":[120,0,42,0,0],"split_type":[0,0,0,0,0],"sum_hessian":[1.2047139E2,7.0004875E1,5.0466515E1,2.2358004E1,2.8108513E1],"tree_param":{"num_deleted":"0","num_feature":"153","num_nodes":"5","size_leaf_vector":"1"}},{"base_weights":[-1.630795E-2,-1.1048121E-2,1.4288151E-2],"categories":[],"categories_nodes":[],"categories_segments":[],"categories_sizes":[],"default_left":[0,0,0],"id":86,"left_children":[1,-1,-1],"loss_changes":[1.105331E1,0E0,0E0],"parents":[2147483647,0,0],"right_children":[2,-1,-1],"split_conditions":[-1.8307754E-1,-1.1048121E-2,1.4288151E-2],"split_indices":[43,0,0],"split_type":[0,0,0],"sum_hessian":[1.3408652E2,8.005023E1,5.403629E1],"tree_param":{"num_deleted":"0","num_feature":"153","num_nodes":"3","size_leaf_vector":"1"}},{"base_weights":[-2.639047E-2,3.2170292E-2,-1.17094345E-1,1.0148057E-2,-2.8609088E-1,9.544409E-3,-1.820054E-2],"categories":[],"categories_nodes":[],"categories_segments":[],"categories_sizes":[],"default_left":[0,0,0,0,0,0,0],"id":87,"left_children":[1,-1,3,-1,5,-1,-1],"loss_changes":[8.380707E0,0E0,6.6241665E0,0E0,5.234548E0,0E0,0E0],"parents":[2147483647,0,0,2,2,4,4],"right_children":[2,-1,4,-1,6,-1,-1],"split_conditions":[-1.4582108E0,3.2170292E-2,-2.8368244E-1,1.0148057E-2,-8.680322E-1,9.544409E-3,-1.820054E-2],"split_indices":[139,0,81,0,36,0,0],"split_type":[0,0,0,0,0,0,0],"sum_hessian":[1.2377669E2,1.2583986E1,1.111927E2,3.5328312E1,7.586439E1,1.5249535E1,6.0614853E1],"tree_param":{"num_deleted":"0","num_feature":"153","num_nodes":"7","size_leaf_vector":"1"}},{"base_weights":[4.352073E-2,3.5470587E-1,-2.2358471E-1,-7.520564E-3,5.2619356E-1,-1.8236576E-2,9.112413E-3,3.4388695E-2,4.0468243E-3],"categories":[],"categories_nodes":[],"categories_segments":[],"categories_sizes":[],"default_left":[0,0,0,0,0,0,0,0,0],"id":88,"left_children":[1,3,5,-1,7,-1,-1,-1,-1],"loss_changes":[1.117807E1,5.8081975E0,6.197131E0,0E0,5.1762743E0,0E0,0E0,0E0,0E0],"parents":[2147483647,0,0,1,1,2,2,4,4],"right_children":[2,4,6,-1,8,-1,-1,-1,-1],"split_conditions":[-4.133613E-1,-6.3273185E-1,4.2322212E-1,-7.520564E-3,-6.2680855E-2,-1.8236576E-2,9.112413E-3,3.4388695E-2,4.0468243E-3],"split_indices":[43,56,126,0,5,0,0,0,0],"split_type":[0,0,0,0,0,0,0,0,0],"sum_hessian":[1.338405E2,6.2522564E1,7.131793E1,1.4739545E1,4.778302E1,4.9659523E1,2.165841E1,2.8937744E1,1.8845276E1],"tree_param":{"num_deleted":"0","num_feature":"153","num_nodes":"9","size_leaf_vector":"1"}},{"base_weights":[1.0226863E-3,-1.8642342E-1,1.574997E-2,5.2197173E-2,-1.998685E-2,-1.2136943E-2,2.081649E-2],"categories":[],"categories_nodes":[],"categories_segments":[],"categories_sizes":[],"default_left":[0,0,0,0,0,0,0],"id":89,"left_children":[1,3,-1,5,-1,-1,-1],"loss_changes":[9.359291E0,6.0293603E0,0E0,6.780853E0,0E0,0E0,0E0],"parents":[2147483647,0,0,1,1,3,3],"right_children":[2,4,-1,6,-1,-1,-1],"split_conditions":[-8.056451E-2,-2.2884386E-2,1.574997E-2,-3.0798545E-1,-1.998685E-2,-1.2136943E-2,2.081649E-2],"split_indices":[43,6,0,16,0,0,0],"split_type":[0,0,0,0,0,0,0],"sum_hessian":[1.3663606E2,8.933463E1,4.730143E1,4.7042038E1,4.22926E1,2.5954311E1,2.1087727E1],"tree_param":{"num_deleted":"0","num_feature":"153","num_nodes":"7","size_leaf_vector":"1"}},{"base_weights":[-0E0,2.49766E-1,-1.0299236E-2,2.2761844E-2,-7.7995704E-3],"categories":[],"categories_nodes":[],"categories_segments":[],"categories_sizes":[],"default_left":[0,0,0,0,0],"id":90,"left_children":[1,3,-1,-1,-1],"loss_changes":[7.395691E0,7.3443365E0,0E0,0E0,0E0],"parents":[2147483647,0,0,1,1],"right_children":[2,4,-1,-1,-1],"split_conditions":[-2.0587909E-1,5.3348944E-2,-1.0299236E-2,2.2761844E-2,-7.7995704E-3],"split_indices":[120,131,0,0,0],"split_type":[0,0,0,0,0],"sum_hessian":[1.2451963E2,6.077464E1,6.3744987E1,3.759939E1,2.3175255E1],"tree_param":{"num_deleted":"0","num_feature":"153","num_nodes":"5","size_leaf_vector":"1"}},{"base_weights":[-1.3354024E-3,2.4543694E-1,-9.816629E-3,-1.6613262E-2,1.7350117E-2],"categories":[],"categories_nodes":[],"categories_segments":[],"categories_sizes":[],"default_left":[0,0,0,0,0],"id":91,"left_children":[1,3,-1,-1,-1],"loss_changes":[6.918069E0,5.724287E0,0E0,0E0,0E0],"parents":[2147483647,0,0,1,1],"right_children":[2,4,-1,-1,-1],"split_conditions":[-4.1437843E-1,-6.287118E-1,-9.816629E-3,-1.6613262E-2,1.7350117E-2],"split_indices":[43,55,0,0,0],"split_type":[0,0,0,0,0],"sum_hessian":[1.2456169E2,5.858801E1,6.597369E1,1.10729E1,4.751511E1],"tree_param":{"num_deleted":"0","num_feature":"153","num_nodes":"5","size_leaf_vector":"1"}},{"base_weights":[-0E0,-2.6111836E-2,9.5925435E-2,-9.857586E-2,4.6873015E-1,5.550594E-3,-2.0535393E-2,3.0434733E-2,-6.0181823E-3],"categories":[],"categories_nodes":[],"categories_segments":[],"categories_sizes":[],"default_left":[0,0,0,0,0,0,0,0,0],"id":92,"left_children":[1,-1,3,5,7,-1,-1,-1,-1],"loss_changes":[7.435722E0,0E0,8.428602E0,6.467554E0,5.8956347E0,0E0,0E0,0E0,0E0],"parents":[2147483647,0,0,2,2,3,3,4,4],"right_children":[2,-1,4,6,8,-1,-1,-1,-1],"split_conditions":[-8.792383E-1,-2.6111836E-2,-1.512569E-1,-1.7589815E-1,6.608684E-1,5.550594E-3,-2.0535393E-2,3.0434733E-2,-6.0181823E-3],"split_indices":[80,0,137,96,116,0,0,0,0],"split_type":[0,0,0,0,0,0,0,0,0],"sum_hessian":[1.3173077E2,1.7568134E1,1.14162636E2,7.430506E1,3.9857574E1,4.565744E1,2.8647623E1,2.9261545E1,1.0596031E1],"tree_param":{"num_deleted":"0","num_feature":"153","num_nodes":"9","size_leaf_vector":"1"}},{"base_weights":[4.8055857E-2,4.0717855E-1,-7.33922E-3,2.871789E-2,-8.074274E-3],"categories":[],"categories_nodes":[],"categories_segments":[],"categories_sizes":[],"default_left":[0,0,0,0,0],"id":93,"left_children":[1,3,-1,-1,-1],"loss_changes":[9.209492E0,6.984565E0,0E0,0E0,0E0],"parents":[2147483647,0,0,1,1],"right_children":[2,4,-1,-1,-1],"split_conditions":[-3.8558182E-1,-2.1634574E-1,-7.33922E-3,2.871789E-2,-8.074274E-3],"split_indices":[55,40,0,0,0],"split_type":[0,0,0,0,0],"sum_hessian":[1.1666524E2,4.4711452E1,7.195378E1,3.1722929E1,1.2988523E1],"tree_param":{"num_deleted":"0","num_feature":"153","num_nodes":"5","size_leaf_vector":"1"}},{"base_weights":[-8.491925E-3,-9.070675E-2,3.341027E-2,8.866297E-3,-1.1980932E-2],"categories":[],"categories_nodes":[],"categories_segments":[],"categories_sizes":[],"default_left":[0,0,0,0,0],"id":94,"left_children":[1,3,-1,-1,-1],"loss_changes":[7.3602676E0,5.972923E0,0E0,0E0,0E0],"parents":[2147483647,0,0,1,1],"right_children":[2,4,-1,-1,-1],"split_conditions":[1.6207117E0,-4.5676008E-1,3.341027E-2,8.866297E-3,-1.1980932E-2],"split_indices":[83,43,0,0,0],"split_type":[0,0,0,0,0],"sum_hessian":[1.1911201E2,1.0822445E2,1.0887564E1,4.095648E1,6.726797E1],"tree_param":{"num_deleted":"0","num_feature":"153","num_nodes":"5","size_leaf_vector":"1"}},{"base_weights":[-5.500505E-3,-1.0365665E-2,4.4809136E-1,-3.917615E-3,2.8482052E-2],"categories":[],"categories_nodes":[],"categories_segments":[],"categories_sizes":[],"default_left":[0,0,0,0,0],"id":95,"left_children":[1,-1,3,-1,-1],"loss_changes":[1.326986E1,0E0,4.9962893E0,0E0,0E0],"parents":[2147483647,0,0,2,2],"right_children":[2,-1,4,-1,-1],"split_conditions":[2.1197565E-2,-1.0365665E-2,-5.2776384E-1,-3.917615E-3,2.8482052E-2],"split_indices":[43,0,114,0,0],"split_type":[0,0,0,0,0],"sum_hessian":[1.2591706E2,8.3678375E1,4.2238693E1,1.1286013E1,3.0952679E1],"tree_param":{"num_deleted":"0","num_feature":"153","num_nodes":"5","size_leaf_vector":"1"}},{"base_weights":[1.0849795E-3,2.778744E-2,-7.9545036E-2,1.4731662E-2,-2.100246E-1,6.82229E-2,-1.8979397E-2,-1.6721329E-2,1.8008448E-2],"categories":[],"categories_nodes":[],"categories_segments":[],"categories_sizes":[],"default_left":[0,0,0,0,0,0,0,0,0],"id":96,"left_children":[1,-1,3,-1,5,7,-1,-1,-1],"loss_changes":[6.763732E0,0E0,6.071007E0,0E0,5.6136637E0,6.0068374E0,0E0,0E0,0E0],"parents":[2147483647,0,0,2,2,4,4,5,5],"right_children":[2,-1,4,-1,6,8,-1,-1,-1],"split_conditions":[-1.3917961E0,2.778744E-2,-8.7623906E-1,1.4731662E-2,-2.5625595E-1,-5.5459984E-2,-1.8979397E-2,-1.6721329E-2,1.8008448E-2],"split_indices":[44,0,130,0,2,105,0,0,0],"split_type":[0,0,0,0,0,0,0,0,0],"sum_hessian":[1.2654904E2,1.4713979E1,1.1183506E2,2.5784754E1,8.605031E1,3.7967716E1,4.8082592E1,1.5949811E1,2.2017906E1],"tree_param":{"num_deleted":"0","num_feature":"153","num_nodes":"9","size_leaf_vector":"1"}},{"base_weights":[-0E0,8.082896E-2,-2.550914E-2,-1.0585817E-1,3.6137673E-1,-1.19341295E-2,1.8917155E-2,2.940899E-2,-5.0623185E-4],"categories":[],"categories_nodes":[],"categories_segments":[],"categories_sizes":[],"default_left":[0,0,0,0,0,0,0,0,0],"id":97,"left_children":[1,3,-1,5,7,-1,-1,-1,-1],"loss_changes":[6.261422E0,6.2869744E0,0E0,6.3806653E0,5.963744E0,0E0,0E0,0E0,0E0],"parents":[2147483647,0,0,1,1,3,3,4,4],"right_children":[2,4,-1,6,8,-1,-1,-1,-1],"split_conditions":[1.1630887E0,1.4294302E-1,-2.550914E-2,6.0993767E-1,-3.9823413E-1,-1.19341295E-2,1.8917155E-2,2.940899E-2,-5.0623185E-4],"split_indices":[45,120,0,52,42,0,0,0,0],"split_type":[0,0,0,0,0,0,0,0,0],"sum_hessian":[1.3388171E2,1.18054115E2,1.5827595E1,7.001434E1,4.8039772E1,5.3907104E1,1.610724E1,2.6536915E1,2.1502855E1],"tree_param":{"num_deleted":"0","num_feature":"153","num_nodes":"9","size_leaf_vector":"1"}},{"base_weights":[1.7513502E-2,-5.778355E-2,3.099322E-2,-1.6296275E-1,1.9489838E-2,2.303221E-2,-1.1137896E-2],"categories":[],"categories_nodes":[],"categories_segments":[],"categories_sizes":[],"default_left":[0,0,0,0,0,0,0],"id":98,"left_children":[1,3,-1,5,-1,-1,-1],"loss_changes":[6.893696E0,5.9323273E0,0E0,6.071542E0,0E0,0E0,0E0],"parents":[2147483647,0,0,1,1,3,3],"right_children":[2,4,-1,6,-1,-1,-1],"split_conditions":[1.3299093E0,1.3360003E0,3.099322E-2,-8.4331787E-1,1.9489838E-2,2.303221E-2,-1.1137896E-2],"split_indices":[141,136,0,2,0,0,0],"split_type":[0,0,0,0,0,0,0],"sum_hessian":[1.26064415E2,1.1326449E2,1.2799929E1,9.449226E1,1.8772223E1,1.0765847E1,8.372642E1],"tree_param":{"num_deleted":"0","num_feature":"153","num_nodes":"7","size_leaf_vector":"1"}},{"base_weights":[4.823355E-2,-4.776136E-2,3.175831E-2,1.8570825E-1,-1.1376786E-2,3.2939762E-2,-4.453023E-4],"categories":[],"categories_nodes":[],"categories_segments":[],"categories_sizes":[],"default_left":[0,0,0,0,0,0,0],"id":99,"left_children":[1,3,-1,5,-1,-1,-1],"loss_changes":[8.383188E0,5.428964E0,0E0,6.0117426E0,0E0,0E0,0E0],"parents":[2147483647,0,0,1,1,3,3],"right_children":[2,4,-1,6,-1,-1,-1],"split_conditions":[1.0818247E0,-2.8237674E-1,3.175831E-2,-7.8726184E-1,-1.1376786E-2,3.2939762E-2,-4.453023E-4],"split_indices":[79,14,0,40,0,0,0],"split_type":[0,0,0,0,0,0,0],"sum_hessian":[1.2324808E2,1.0757863E2,1.5669449E1,5.0655296E1,5.692333E1,1.3407622E1,3.7247673E1],"tree_param":{"num_deleted":"0","num_feature":"153","num_nodes":"7","size_leaf_vector":"1"}},{"base_weights":[2.1575037E-2,1.1181691E-1,-2.4002125E-2,-1.3504152E-2,2.678707E-1,1.2576062E-3,2.4487138E-2],"categories":[],"categories_nodes":[],"categories_segments":[],"categories_sizes":[],"default_left":[0,0,0,0,0,0,0],"id":100,"left_children":[1,3,-1,-1,5,-1,-1],"loss_changes":[6.4989123E0,7.3687096E0,0E0,0E0,5.6099687E0,0E0,0E0],"parents":[2147483647,0,0,1,1,4,4],"right_children":[2,4,-1,-1,6,-1,-1],"split_conditions":[6.8764263E-1,-5.875167E-1,-2.4002125E-2,-1.3504152E-2,-3.4946164E-1,1.2576062E-3,2.4487138E-2],"split_indices":[42,104,0,0,133,0,0],"split_type":[0,0,0,0,0,0,0],"sum_hessian":[1.2854834E2,1.1174045E2,1.6807886E1,2.9380943E1,8.2359505E1,4.6441643E1,3.5917862E1],"tree_param":{"num_deleted":"0","num_feature":"153","num_nodes":"7","size_leaf_vector":"1"}},{"base_weights":[-1.6702406E-2,-9.9925876E-2,2.9331133E-2,-0E0,-2.7173685E-2,-1.154018E-2,2.8015321E-1,-7.6993904E-3,2.8899986E-2],"categories":[],"categories_nodes":[],"categories_segments":[],"categories_sizes":[],"default_left":[0,0,0,0,0,0,0,0,0],"id":101,"left_children":[1,3,-1,5,-1,-1,7,-1,-1],"loss_changes":[6.797434E0,5.621098E0,0E0,6.8793845E0,0E0,0E0,8.094757E0,0E0,0E0],"parents":[2147483647,0,0,1,1,3,3,6,6],"right_children":[2,4,-1,6,-1,-1,8,-1,-1],"split_conditions":[1.361864E0,1.08687E0,2.9331133E-2,-3.8269484E-1,-2.7173685E-2,-1.154018E-2,1.2570092E-2,-7.6993904E-3,2.8899986E-2],"split_indices":[45,49,0,137,0,0,51,0,0],"split_type":[0,0,0,0,0,0,0,0,0],"sum_hessian":[1.2177216E2,1.0925481E2,1.2517354E1,9.2202614E1,1.70522E1,4.76586E1,4.454401E1,1.9923946E1,2.4620064E1],"tree_param":{"num_deleted":"0","num_feature":"153","num_nodes":"9","size_leaf_vector":"1"}},{"base_weights":[6.846133E-2,-1.6329436E-3,2.3607405E-2],"categories":[],"categories_nodes":[],"categories_segments":[],"categories_sizes":[],"default_left":[0,0,0],"id":102,"left_children":[1,-1,-1],"loss_changes":[6.6812696E0,0E0,0E0],"parents":[2147483647,0,0],"right_children":[2,-1,-1],"split_conditions":[1.1457506E0,-1.6329436E-3,2.3607405E-2],"split_indices":[127,0,0],"split_type":[0,0,0],"sum_hessian":[1.2797368E2,1.0396219E2,2.4011482E1],"tree_param":{"num_deleted":"0","num_feature":"153","num_nodes":"3","size_leaf_vector":"1"}},{"base_weights":[-3.599317E-2,-9.859644E-3,1.1210365E-2],"categories":[],"categories_nodes":[],"categories_segments":[],"categories_sizes":[],"default_left":[0,0,0],"id":103,"left_children":[1,-1,-1],"loss_changes":[7.0021973E0,0E0,0E0],"parents":[2147483647,0,0],"right_children":[2,-1,-1],"split_conditions":[2.6695874E-1,-9.859644E-3,1.1210365E-2],"split_indices":[120,0,0],"split_type":[0,0,0],"sum_hessian":[1.2415504E2,7.607926E1,4.807577E1],"tree_param":{"num_deleted":"0","num_feature":"153","num_nodes":"3","size_leaf_vector":"1"}},{"base_weights":[-5.2205566E-2,-2.3750588E-1,1.4256816E-2,-5.2686494E-2,-2.6188996E-2,-1.905296E-2,1.0885407E-2],"categories":[],"categories_nodes":[],"categories_segments":[],"categories_sizes":[],"default_left":[0,0,0,0,0,0,0],"id":104,"left_children":[1,3,-1,5,-1,-1,-1],"loss_changes":[8.42251E0,5.24826E0,0E0,6.5279613E0,0E0,0E0,0E0],"parents":[2147483647,0,0,1,1,3,3],"right_children":[2,4,-1,6,-1,-1,-1],"split_conditions":[-1.0082212E-1,-1.924339E-1,1.4256816E-2,-1.071461E-1,-2.6188996E-2,-1.905296E-2,1.0885407E-2],"split_indices":[138,60,0,8,0,0,0],"split_type":[0,0,0,0,0,0,0],"sum_hessian":[1.1971238E2,8.128415E1,3.8428234E1,5.4803978E1,2.6480173E1,2.4692053E1,3.0111925E1],"tree_param":{"num_deleted":"0","num_feature":"153","num_nodes":"7","size_leaf_vector":"1"}},{"base_weights":[3.7405208E-2,-1.5469669E-1,1.7591363E-2,1.4439491E-2,-1.4071392E-2],"categories":[],"categories_nodes":[],"categories_segments":[],"categories_sizes":[],"default_left":[0,0,0,0,0],"id":105,"left_children":[1,3,-1,-1,-1],"loss_changes":[9.222775E0,6.967844E0,0E0,0E0,0E0],"parents":[2147483647,0,0,1,1],"right_children":[2,4,-1,-1,-1],"split_conditions":[8.5893415E-2,-7.8726184E-1,1.7591363E-2,1.4439491E-2,-1.4071392E-2],"split_indices":[95,40,0,0,0],"split_type":[0,0,0,0,0],"sum_hessian":[1.2875417E2,8.3928E1,4.4826164E1,2.108054E1,6.284746E1],"tree_param":{"num_deleted":"0","num_feature":"153","num_nodes":"5","size_leaf_vector":"1"}},{"base_weights":[-2.9620718E-2,-5.494982E-3,2.420354E-2],"categories":[],"categories_nodes":[],"categories_segments":[],"categories_sizes":[],"default_left":[0,0,0],"id":106,"left_children":[1,-1,-1],"loss_changes":[6.3440638E0,0E0,0E0],"parents":[2147483647,0,0],"right_children":[2,-1,-1],"split_conditions":[1.1766583E0,-5.494982E-3,2.420354E-2],"split_indices":[126,0,0],"split_type":[0,0,0],"sum_hessian":[1.1393413E2,9.8368484E1,1.5565649E1],"tree_param":{"num_deleted":"0","num_feature":"153","num_nodes":"3","size_leaf_vector":"1"}},{"base_weights":[-2.4811793E-2,-1.0204807E-2,3.810023E-1,2.6449183E-2,-1.2792021E-2],"categories":[],"categories_nodes":[],"categories_segments":[],"categories_sizes":[],"default_left":[0,0,0,0,0],"id":107,"left_children":[1,-1,3,-1,-1],"loss_changes":[1.0565053E1,0E0,6.6206555E0,0E0,0E0],"parents":[2147483647,0,0,2,2],"right_children":[2,-1,4,-1,-1],"split_conditions":[-9.3452744E-2,-1.0204807E-2,4.165267E-1,2.6449183E-2,-1.2792021E-2],"split_indices":[138,0,126,0,0],"split_type":[0,0,0,0,0],"sum_hessian":[1.24194756E2,8.239668E1,4.1798073E1,3.1651838E1,1.0146237E1],"tree_param":{"num_deleted":"0","num_feature":"153","num_nodes":"5","size_leaf_vector":"1"}},{"base_weights":[-9.98237E-4,1.7336045E-1,-1.5672803E-2,2.564863E-2,-1.4830323E-1,1.0299198E-2,-2.0240236E-2],"categories":[],"categories_nodes":[],"categories_segments":[],"categories_sizes":[],"default_left":[0,0,0,0,0,0,0],"id":108,"left_children":[1,3,-1,-1,5,-1,-1],"loss_changes":[7.8246207E0,1.126329E1,0E0,0E0,5.7565675E0,0E0,0E0],"parents":[2147483647,0,0,1,1,4,4],"right_children":[2,4,-1,-1,6,-1,-1],"split_conditions":[-7.423297E-2,-1.763449E-1,-1.5672803E-2,2.564863E-2,-2.5625595E-1,1.0299198E-2,-2.0240236E-2],"split_indices":[131,119,0,0,2,0,0],"split_type":[0,0,0,0,0,0,0],"sum_hessian":[1.2314294E2,8.226639E1,4.087655E1,3.6285656E1,4.5980732E1,2.022612E1,2.5754612E1],"tree_param":{"num_deleted":"0","num_feature":"153","num_nodes":"7","size_leaf_vector":"1"}},{"base_weights":[2.1179143E-2,1.16531886E-1,-2.2251086E-2,-2.8321583E-2,2.0451427E-1,1.330178E-2,-1.9095894E-2],"categories":[],"categories_nodes":[],"categories_segments":[],"categories_sizes":[],"default_left":[0,0,0,0,0,0,0],"id":109,"left_children":[1,3,-1,-1,5,-1,-1],"loss_changes":[6.6180058E0,7.507586E0,0E0,0E0,6.7195287E0,0E0,0E0],"parents":[2147483647,0,0,1,1,4,4],"right_children":[2,4,-1,-1,6,-1,-1],"split_conditions":[7.461526E-1,-1.4582108E0,-2.2251086E-2,-2.8321583E-2,1.1267885E0,1.330178E-2,-1.9095894E-2],"split_indices":[42,139,0,0,140,0,0],"split_type":[0,0,0,0,0,0,0],"sum_hessian":[1.32918E2,1.13454216E2,1.9463783E1,1.1154666E1,1.0229955E2,8.8811646E1,1.3487908E1],"tree_param":{"num_deleted":"0","num_feature":"153","num_nodes":"7","size_leaf_vector":"1"}},{"base_weights":[-3.2725386E-2,-1.1601548E-2,1.3832174E-2],"categories":[],"categories_nodes":[],"categories_segments":[],"categories_sizes":[],"default_left":[0,0,0],"id":110,"left_children":[1,-1,-1],"loss_changes":[1.0209285E1,0E0,0E0],"parents":[2147483647,0,0],"right_children":[2,-1,-1],"split_conditions":[-1.6326429E-1,-1.1601548E-2,1.3832174E-2],"split_indices":[43,0,0],"split_type":[0,0,0],"sum_hessian":[1.2357463E2,7.478569E1,4.878894E1],"tree_param":{"num_deleted":"0","num_feature":"153","num_nodes":"3","size_leaf_vector":"1"}},{"base_weights":[3.067937E-3,1.5280513E-2,-7.7393265E-3],"categories":[],"categories_nodes":[],"categories_segments":[],"categories_sizes":[],"default_left":[0,0,0],"id":111,"left_children":[1,-1,-1],"loss_changes":[7.8538976E0,0E0,0E0],"parents":[2147483647,0,0],"right_children":[2,-1,-1],"split_conditions":[-2.6259226E-1,1.5280513E-2,-7.7393265E-3],"split_indices":[82,0,0],"split_type":[0,0,0],"sum_hessian":[1.2244378E2,4.2637863E1,7.9805916E1],"tree_param":{"num_deleted":"0","num_feature":"153","num_nodes":"3","size_leaf_vector":"1"}},{"base_weights":[-2.2015888E-2,-1.8920226E-2,8.023752E-2,1.714233E-1,-2.2574577E-2,2.0316092E-2,-1.5024014E-3],"categories":[],"categories_nodes":[],"categories_segments":[],"categories_sizes":[],"default_left":[0,0,0,0,0,0,0],"id":112,"left_children":[1,-1,3,5,-1,-1,-1],"loss_changes":[5.492821E0,0E0,5.3617563E0,5.558788E0,0E0,0E0,0E0],"parents":[2147483647,0,0,2,2,3,3],"right_children":[2,-1,4,6,-1,-1,-1],"split_conditions":[-6.1377704E-1,-1.8920226E-2,1.1766723E0,-4.4051632E-1,-2.2574577E-2,2.0316092E-2,-1.5024014E-3],"split_indices":[56,0,42,45,0,0,0],"split_type":[0,0,0,0,0,0,0],"sum_hessian":[1.2607887E2,2.5719345E1,1.0035953E2,8.7734215E1,1.262531E1,3.6704296E1,5.102992E1],"tree_param":{"num_deleted":"0","num_feature":"153","num_nodes":"7","size_leaf_vector":"1"}},{"base_weights":[-3.161985E-2,-1.5061355E-1,1.814819E-2,-2.2470374E-2,2.6842272E-3,2.7409583E-2,-5.0833607E-3],"categories":[],"categories_nodes":[],"categories_segments":[],"categories_sizes":[],"default_left":[0,0,0,0,0,0,0],"id":113,"left_children":[1,3,-1,-1,5,-1,-1],"loss_changes":[6.1102705E0,5.429137E0,0E0,0E0,5.0896063E0,0E0,0E0],"parents":[2147483647,0,0,1,1,4,4],"right_children":[2,4,-1,-1,6,-1,-1],"split_conditions":[5.471857E-1,-1.8071319E-1,1.814819E-2,-2.2470374E-2,-7.51787E-1,2.7409583E-2,-5.0833607E-3],"split_indices":[50,102,0,0,74,0,0],"split_type":[0,0,0,0,0,0,0],"sum_hessian":[1.15987045E2,9.2471344E1,2.35157E1,2.7963276E1,6.4508064E1,1.0864811E1,5.3643257E1],"tree_param":{"num_deleted":"0","num_feature":"153","num_nodes":"7","size_leaf_vector":"1"}},{"base_weights":[8.8691333E-4,2.3754041E-1,-9.838116E-3,1.9849615E-2,-6.4506503E-3],"categories":[],"categories_nodes":[],"categories_segments":[],"categories_sizes":[],"default_left":[0,0,0,0,0],"id":114,"left_children":[1,3,-1,-1,-1],"loss_changes":[6.6639705E0,5.3670692E0,0E0,0E0,0E0],"parents":[2147483647,0,0,1,1],"right_children":[2,4,-1,-1,-1],"split_conditions":[-1.5379643E-1,3.7741974E-2,-9.838116E-3,1.9849615E-2,-6.4506503E-3],"split_indices":[119,40,0,0,0],"split_type":[0,0,0,0,0],"sum_hessian":[1.2341065E2,6.1435345E1,6.1975307E1,3.9771027E1,2.1664316E1],"tree_param":{"num_deleted":"0","num_feature":"153","num_nodes":"5","size_leaf_vector":"1"}},{"base_weights":[3.454568E-3,2.0346433E-1,-1.9564311E-1,-1.9301178E-2,1.4242345E-2,-1.507358E-2,2.132487E-2],"categories":[],"categories_nodes":[],"categories_segments":[],"categories_sizes":[],"default_left":[0,0,0,0,0,0,0],"id":115,"left_children":[1,3,5,-1,-1,-1,-1],"loss_changes":[5.2514267E0,5.3853626E0,6.7585044E0,0E0,0E0,0E0,0E0],"parents":[2147483647,0,0,1,1,2,2],"right_children":[2,4,6,-1,-1,-1,-1],"split_conditions":[-4.1146103E-1,-1.3520536E0,9.565164E-1,-1.9301178E-2,1.4242345E-2,-1.507358E-2,2.132487E-2],"split_indices":[43,139,35,0,0,0,0],"split_type":[0,0,0,0,0,0,0],"sum_hessian":[1.3179407E2,6.676545E1,6.502861E1,1.0282332E1,5.648312E1,5.37216E1,1.13070135E1],"tree_param":{"num_deleted":"0","num_feature":"153","num_nodes":"7","size_leaf_vector":"1"}},{"base_weights":[3.1118698E-2,-4.8888484E-3,2.0620974E-2],"categories":[],"categories_nodes":[],"categories_segments":[],"categories_sizes":[],"default_left":[0,0,0],"id":116,"left_children":[1,-1,-1],"loss_changes":[7.922811E0,0E0,0E0],"parents":[2147483647,0,0],"right_children":[2,-1,-1],"split_conditions":[4.6485597E-1,-4.8888484E-3,2.0620974E-2],"split_indices":[151,0,0],"split_type":[0,0,0],"sum_hessian":[1.2134604E2,9.098874E1,3.03573E1],"tree_param":{"num_deleted":"0","num_feature":"153","num_nodes":"3","size_leaf_vector":"1"}},{"base_weights":[-4.2278852E-2,2.338312E-1,-1.1824841E-2,-8.214038E-3,1.9103425E-2],"categories":[],"categories_nodes":[],"categories_segments":[],"categories_sizes":[],"default_left":[0,0,0,0,0],"id":117,"left_children":[1,3,-1,-1,-1],"loss_changes":[8.2741E0,5.2103896E0,0E0,0E0,0E0],"parents":[2147483647,0,0,1,1],"right_children":[2,4,-1,-1,-1],"split_conditions":[-3.433666E-1,-7.6438993E-1,-1.1824841E-2,-8.214038E-3,1.9103425E-2],"split_indices":[10,38,0,0,0],"split_type":[0,0,0,0,0],"sum_hessian":[1.2962549E2,5.820775E1,7.141773E1,1.8480299E1,3.972745E1],"tree_param":{"num_deleted":"0",